"Factor1","Factor2","Factor3","Factor4","Factor5","Factor6","Factor7","Factor8","Factor9","Factor10","Factor11","Factor12","Factor13","Factor14","Factor15","Factor16","Factor17","Factor18","Factor19"
-0.0576482966207119,-0.000901535917222399,-0.253403306255018,-0.269750783244407,-0.000142568103891531,0.000364685889993096,0.000205147785997149,-0.00136020167733676,0.144517449986267,-0.00164717511671679,-1.81878441857457e-05,-0.0049072884021623,-0.000141655991413138,0.000100303370436573,1.30564033103504e-05,0.00109636974057112,4.90754824178518e-05,7.1098959598072e-05,2.83950718425004e-06
0.0576482966207119,0.000901535917222399,0.253403306255018,0.269750783244407,0.000142568103891531,-0.000364685889993096,-0.000205147785997149,0.00136020167733676,-0.144517449986267,0.00164717511671679,1.81878441857457e-05,0.0049072884021623,0.000141655991413138,-0.000100303370436573,-1.30564033103504e-05,-0.00109636974057112,-4.90754824178518e-05,-7.1098959598072e-05,-2.83950718425004e-06
-0.316992242550234,2.87656463269071e-06,-0.000545094388300981,0.000654902796456151,0.00341518185455004,-0.000137786194752034,-0.000250863191396856,-0.00552466337519916,0.0120181447626569,-0.0232498750528897,3.93294783879867e-05,-0.00124389640475989,0.000168575429992972,-0.000201022048829852,-0.290757147472148,2.96131259579814e-05,-0.000196028647649906,-5.83375354476321e-05,-0.000338216647458376
0.316992242550234,-2.87656463269071e-06,0.000545094388300981,-0.000654902796456151,-0.00341518185455004,0.000137786194752034,0.000250863191396856,0.00552466337519916,-0.0120181447626569,0.0232498750528897,-3.93294783879867e-05,0.00124389640475989,-0.000168575429992972,0.000201022048829852,0.290757147472148,-2.96131259579814e-05,0.000196028647649906,5.83375354476321e-05,0.000338216647458376
-0.299690768836078,0.000649819130630399,-0.00370856599084209,0.00898103903417761,0.0520338350009526,0.000103892272707725,-0.000103583480780962,-0.00310075242869626,0.0129917953789926,-0.0678413685934181,-1.70946015204443e-05,-0.000689747920865276,-0.000258609714383682,-0.0009034461293106,-0.417484451496686,-0.00102654595515555,5.72846124342658e-05,-0.000174941883336113,-0.000104881620245286
0.299690768836078,-0.000649819130630399,0.00370856599084209,-0.00898103903417761,-0.0520338350009526,-0.000103892272707725,0.000103583480780962,0.00310075242869626,-0.0129917953789926,0.0678413685934181,1.70946015204443e-05,0.000689747920865276,0.000258609714383682,0.0009034461293106,0.417484451496686,0.00102654595515555,-5.72846124342658e-05,0.000174941883336113,0.000104881620245286
-0.00262164994642156,-0.000168638358689116,-0.00136067500082012,-0.000331430327364545,-0.00137137579017412,1.98531199165206e-06,6.78421756571128e-05,-0.000897940232680199,0.00106385165864275,-0.000120980023276645,1.01203973538212e-05,-0.000534459273099405,0.000256506325211194,-0.000287317793758466,3.50632430188671e-06,-2.42183667455887e-05,-3.60713639849816e-05,-1.19864110528527e-05,2.02754639883881e-05
0.00262164994642156,0.000168638358689116,0.00136067500082012,0.000331430327364545,0.00137137579017412,-1.98531199165206e-06,-6.78421756571128e-05,0.000897940232680199,-0.00106385165864275,0.000120980023276645,-1.01203973538212e-05,0.000534459273099405,-0.000256506325211194,0.000287317793758466,-3.50632430188671e-06,2.42183667455887e-05,3.60713639849816e-05,1.19864110528527e-05,-2.02754639883881e-05
-0.00244161481511294,-0.000202349081548781,-0.000667920819069837,0.00021003394499695,-0.00161792150312957,0.000192841715798819,-2.77936030917581e-05,-0.000667591151103624,0.000996112596636718,1.27197555996988e-05,7.04704852665288e-05,-0.000761165572779114,6.71347603291161e-05,-0.000127355567291384,2.63542870761084e-05,-1.69074138972181e-05,4.45244530507187e-05,9.04088298303385e-06,-2.17064168769918e-05
0.00244161481511294,0.000202349081548781,0.000667920819069837,-0.00021003394499695,0.00161792150312957,-0.000192841715798819,2.77936030917581e-05,0.000667591151103624,-0.000996112596636718,-1.27197555996988e-05,-7.04704852665288e-05,0.000761165572779114,-6.71347603291161e-05,0.000127355567291384,-2.63542870761084e-05,1.69074138972181e-05,-4.45244530507187e-05,-9.04088298303385e-06,2.17064168769918e-05
-0.000348961264375117,1.86250618827924e-05,-0.000587913058301034,-0.000250818082634207,0.000136060572887359,5.13104148444975e-05,4.85726314012877e-05,0.000248724713642593,-4.28847912398915e-05,-0.000148160075468144,-1.59574985103507e-06,-6.63635698107502e-05,4.04532416161649e-05,0.000106700403651408,-5.64532765361323e-05,4.63769354481605e-05,1.46207668267365e-05,-9.80241277097767e-06,-1.43693168005214e-05
0.000348961264375117,-1.86250618827924e-05,0.000587913058301034,0.000250818082634207,-0.000136060572887359,-5.13104148444975e-05,-4.85726314012877e-05,-0.000248724713642593,4.28847912398915e-05,0.000148160075468144,1.59574985103507e-06,6.63635698107502e-05,-4.04532416161649e-05,-0.000106700403651408,5.64532765361323e-05,-4.63769354481605e-05,-1.46207668267365e-05,9.80241277097767e-06,1.43693168005214e-05
-4.20282006092345e-05,6.67941236607495e-05,-0.000570761326983036,-0.00032430764812481,0.000123658628191258,9.03154219803677e-05,8.40331019104188e-05,-0.000115062438611392,-0.000404386975564165,-0.000102934021992451,-2.59347363845093e-05,8.37681513394062e-05,-8.32671673861724e-05,0.000159670549191168,5.05088811087706e-05,-3.68144457776259e-05,4.34531013926386e-06,2.45212175033851e-05,-1.96224106369829e-06
4.20282006092345e-05,-6.67941236607495e-05,0.000570761326983036,0.00032430764812481,-0.000123658628191258,-9.03154219803677e-05,-8.40331019104188e-05,0.000115062438611392,0.000404386975564165,0.000102934021992451,2.59347363845093e-05,-8.37681513394062e-05,8.32671673861724e-05,-0.000159670549191168,-5.05088811087706e-05,3.68144457776259e-05,-4.34531013926386e-06,-2.45212175033851e-05,1.96224106369829e-06
9.09080922204209e-06,8.54946529492318e-05,-0.000141444470457501,-0.000210969221343476,-0.000183926039598054,8.86372257355824e-05,6.95910544931812e-05,4.60367920903534e-05,-0.000220855135569855,-2.41183774172996e-05,-6.02099229017349e-06,1.39401129621913e-05,-0.000129128672110398,9.81789724163669e-05,2.90529704278558e-05,1.06797874210888e-05,-1.3143406273995e-05,7.00356101368374e-05,2.31673050557708e-05
-9.09080922204209e-06,-8.54946529492318e-05,0.000141444470457501,0.000210969221343476,0.000183926039598054,-8.86372257355824e-05,-6.95910544931812e-05,-4.60367920903534e-05,0.000220855135569855,2.41183774172996e-05,6.02099229017349e-06,-1.39401129621913e-05,0.000129128672110398,-9.81789724163669e-05,-2.90529704278558e-05,-1.06797874210888e-05,1.3143406273995e-05,-7.00356101368374e-05,-2.31673050557708e-05
-7.14551958146375e-06,1.49117261902954e-05,-0.000409279458148463,-0.000148067728406385,0.000112757757659441,2.90482691401689e-05,5.11932489923845e-05,-0.000136665069373788,-0.000309998959884085,7.17778286511446e-05,-5.68744041233854e-06,7.07843955217223e-05,7.49954572777832e-05,-4.56656433224788e-05,2.49135072427413e-05,2.99280048234429e-05,-5.99272683058314e-06,1.34898384910153e-05,2.06531679161466e-06
7.14551958146375e-06,-1.49117261902954e-05,0.000409279458148463,0.000148067728406385,-0.000112757757659441,-2.90482691401689e-05,-5.11932489923845e-05,0.000136665069373788,0.000309998959884085,-7.17778286511446e-05,5.68744041233854e-06,-7.07843955217223e-05,-7.49954572777832e-05,4.56656433224788e-05,-2.49135072427413e-05,-2.99280048234429e-05,5.99272683058314e-06,-1.34898384910153e-05,-2.06531679161466e-06
-0.193516607463877,-4.99561586914215e-05,-0.339366332607548,-0.343479254711057,-0.00830824964492667,-0.000311681541330378,-0.000203699806847547,-0.11114689907398,0.127383617298621,-0.000940337317164117,1.26857913968225e-05,0.000671842733975567,0.00017876324803904,0.000272411963509101,0.000175122524376612,0.000308851561106085,0.000385184236923922,-0.000315147438656581,-3.22431032193705e-06
0.193516607463877,4.99561586914215e-05,0.339366332607548,0.343479254711057,0.00830824964492667,0.000311681541330378,0.000203699806847547,0.11114689907398,-0.127383617298621,0.000940337317164117,-1.26857913968225e-05,-0.000671842733975567,-0.00017876324803904,-0.000272411963509101,-0.000175122524376612,-0.000308851561106085,-0.000385184236923922,0.000315147438656581,3.22431032193705e-06
-0.220350280035674,-0.000213509292423011,-0.268548949831724,-0.369603817902832,-0.00486836992425135,-0.000730797778743855,-0.000495261879042569,-0.203378691323068,0.14735919397775,0.000677786463165309,-3.33492607181e-05,0.000911770328393422,0.00144924092775344,-0.000826449900285218,-4.92147136302903e-05,-0.000551930900270878,4.59882536904756e-05,-0.0019148578563136,-0.000966238052069073
0.220350280035674,0.000213509292423011,0.268548949831724,0.369603817902832,0.00486836992425135,0.000730797778743855,0.000495261879042569,0.203378691323068,-0.14735919397775,-0.000677786463165309,3.33492607181e-05,-0.000911770328393422,-0.00144924092775344,0.000826449900285218,4.92147136302903e-05,0.000551930900270878,-4.59882536904756e-05,0.0019148578563136,0.000966238052069073
-0.0032957332870974,0.000166429141837609,-0.00216212875142511,-0.00161305172027582,0.00231433838922911,-0.000268557249622118,-7.41629519078338e-05,-0.000994642088526478,0.000446199710714574,1.06866434293098e-05,-5.80304201979038e-05,0.000605750762597453,-1.71123386209237e-05,-0.000331311503833173,-0.000888403198565751,0.00028335159322313,-4.77259779666318e-05,-5.42359316010743e-05,-5.22889379458302e-06
0.0032957332870974,-0.000166429141837609,0.00216212875142511,0.00161305172027582,-0.00231433838922911,0.000268557249622118,7.41629519078338e-05,0.000994642088526478,-0.000446199710714574,-1.06866434293098e-05,5.80304201979038e-05,-0.000605750762597453,1.71123386209237e-05,0.000331311503833173,0.000888403198565751,-0.00028335159322313,4.77259779666318e-05,5.42359316010743e-05,5.22889379458302e-06
-0.00242811953432213,0.000476178242865687,-0.00279709768225572,0.00132530792607728,0.00111484141516913,-6.85116754306315e-05,2.9131292111899e-05,-0.00132414198004475,-0.000206427822933304,0.000315367187884754,-4.44943430536191e-05,0.000607687314026566,2.69772034622274e-05,0.000288435601547341,-0.000450960803536552,-0.000165019301108875,0.000209086714649976,8.10521775641611e-05,7.28316867282228e-05
0.00242811953432213,-0.000476178242865687,0.00279709768225572,-0.00132530792607728,-0.00111484141516913,6.85116754306315e-05,-2.9131292111899e-05,0.00132414198004475,0.000206427822933304,-0.000315367187884754,4.44943430536191e-05,-0.000607687314026566,-2.69772034622274e-05,-0.000288435601547341,0.000450960803536552,0.000165019301108875,-0.000209086714649976,-8.10521775641611e-05,-7.28316867282228e-05
-0.0480190277439787,0.000292851219369212,-0.00163464594728674,0.000803682859927774,0.000272709188766989,0.000238017709913663,0.000311117548218597,-0.00121053757328971,0.00081426185760674,-0.00177303547570973,6.6088654600274e-05,-0.00130844183133647,0.000703111520999367,0.00141651116016872,-3.91868688741328e-05,0.00063903751341807,3.04818956618953e-05,0.000305206926272984,-3.75818239000953e-05
0.0480190277439787,-0.000292851219369212,0.00163464594728674,-0.000803682859927774,-0.000272709188766989,-0.000238017709913663,-0.000311117548218597,0.00121053757328971,-0.00081426185760674,0.00177303547570973,-6.6088654600274e-05,0.00130844183133647,-0.000703111520999367,-0.00141651116016872,3.91868688741328e-05,-0.00063903751341807,-3.04818956618953e-05,-0.000305206926272984,3.75818239000953e-05
-0.00136440300222768,-9.19934077557433e-06,-0.000732155061812892,-7.25816893989483e-05,-0.00173117253105917,3.02586151657321e-06,-0.000160900504656244,-0.000895264655002623,0.000568281460338233,-3.48368901481633e-05,-1.11711565880695e-05,-0.000504927946833131,-2.27499931654283e-05,-8.60032959214528e-05,-5.77472546712853e-05,-6.21517407743557e-06,4.74079304397138e-06,-4.89769345659863e-05,-1.9856612203358e-07
0.00136440300222768,9.19934077557433e-06,0.000732155061812892,7.25816893989483e-05,0.00173117253105917,-3.02586151657321e-06,0.000160900504656244,0.000895264655002623,-0.000568281460338233,3.48368901481633e-05,1.11711565880695e-05,0.000504927946833131,2.27499931654283e-05,8.60032959214528e-05,5.77472546712853e-05,6.21517407743557e-06,-4.74079304397138e-06,4.89769345659863e-05,1.9856612203358e-07
-0.00643160398042755,0.000234490117644216,0.000627896838090848,0.00062720484682246,0.000685028460990238,0.000186715687353591,0.000119317592955153,-0.00106744077834637,0.00134554930874671,-0.00102057017938064,5.26286603575548e-05,-0.000329607524459409,0.0016084065840972,0.000425788044220625,-1.9971094796679e-05,0.000252875071675035,-1.89330498378477e-05,0.00019688647764051,-5.36904992158341e-05
0.00643160398042755,-0.000234490117644216,-0.000627896838090848,-0.00062720484682246,-0.000685028460990238,-0.000186715687353591,-0.000119317592955153,0.00106744077834637,-0.00134554930874671,0.00102057017938064,-5.26286603575548e-05,0.000329607524459409,-0.0016084065840972,-0.000425788044220625,1.9971094796679e-05,-0.000252875071675035,1.89330498378477e-05,-0.00019688647764051,5.36904992158341e-05
-0.00112497410473031,4.52801134956266e-05,-0.000256878744051536,7.41408065698146e-05,-0.00147362857181834,6.82916873626954e-05,-8.1714923091704e-05,-0.000527422417088216,0.000398965287665167,-4.49259842931772e-05,-4.63976055966114e-06,-0.000359180464626449,2.64979981915198e-05,-2.14524203620511e-05,-3.51742842172099e-05,-6.09617876373702e-06,-4.78851791113913e-05,-4.15017669847309e-05,-4.68236494095672e-07
0.00112497410473031,-4.52801134956266e-05,0.000256878744051536,-7.41408065698146e-05,0.00147362857181834,-6.82916873626954e-05,8.1714923091704e-05,0.000527422417088216,-0.000398965287665167,4.49259842931772e-05,4.63976055966114e-06,0.000359180464626449,-2.64979981915198e-05,2.14524203620511e-05,3.51742842172099e-05,6.09617876373702e-06,4.78851791113913e-05,4.15017669847309e-05,4.68236494095672e-07
-0.0398575222358969,0.000124882118382683,-0.000813533457524474,0.000655019428396229,-0.000363314896778101,-5.31884313164836e-05,0.000355737705882224,-0.00248784428546605,0.00154760454279967,-0.00133434017967188,0.000159963819084292,-0.000958452155761922,0.000218540493350056,0.00071471660600749,-1.5886505077402e-05,0.000511283126196077,9.79810296171017e-05,0.000288474938983112,8.1502278779797e-05
0.0398575222358969,-0.000124882118382683,0.000813533457524474,-0.000655019428396229,0.000363314896778101,5.31884313164836e-05,-0.000355737705882224,0.00248784428546605,-0.00154760454279967,0.00133434017967188,-0.000159963819084292,0.000958452155761922,-0.000218540493350056,-0.00071471660600749,1.5886505077402e-05,-0.000511283126196077,-9.79810296171017e-05,-0.000288474938983112,-8.1502278779797e-05
-0.000983627885510111,9.43329688710575e-06,-0.000600987135841203,0.000139241831417264,-0.00136663023258509,5.39004856799381e-06,-0.00016002115221377,-0.00062350287237725,0.0002835116010086,0.000104964911067129,8.3818650327849e-06,-0.000438079623091298,4.46280493967295e-06,-0.000146781240273908,-4.94340297631173e-05,-4.40423605525773e-05,4.83654588827499e-06,-6.34620604321829e-05,7.10110890316855e-08
0.000983627885510111,-9.43329688710575e-06,0.000600987135841203,-0.000139241831417264,0.00136663023258509,-5.39004856799381e-06,0.00016002115221377,0.00062350287237725,-0.0002835116010086,-0.000104964911067129,-8.3818650327849e-06,0.000438079623091298,-4.46280493967295e-06,0.000146781240273908,4.94340297631173e-05,4.40423605525773e-05,-4.83654588827499e-06,6.34620604321829e-05,-7.10110890316855e-08
-0.0167292440391047,0.000264990430858962,-0.000667903899687224,-0.000154999795274009,0.000348736602819567,9.72646247127597e-05,7.47453116898671e-05,-0.000461209924489323,0.00124694801418604,-0.00113005405823441,8.62093358352937e-05,-0.00044655068456876,0.0012421941928975,0.000467327410022995,0.000149406135121466,0.000293438725757183,4.57891897151678e-05,9.55251618250062e-05,7.80610429953947e-05
0.0167292440391047,-0.000264990430858962,0.000667903899687224,0.000154999795274009,-0.000348736602819567,-9.72646247127597e-05,-7.47453116898671e-05,0.000461209924489323,-0.00124694801418604,0.00113005405823441,-8.62093358352937e-05,0.00044655068456876,-0.0012421941928975,-0.000467327410022995,-0.000149406135121466,-0.000293438725757183,-4.57891897151678e-05,-9.55251618250062e-05,-7.80610429953947e-05
-0.00328520407141956,-0.000187373149583646,-0.000409344678972292,1.61985044020131e-05,-0.00245536432804873,1.164697620715e-05,-0.000117342565323348,-0.00109660609824747,0.000993996515444623,-0.000191186049947036,1.90901812168056e-05,-0.000945902195075649,-4.3721004524137e-05,-0.000149505609454133,4.65323636040844e-05,-4.54789451286879e-05,1.63231130464446e-05,-1.14891061145302e-05,-6.67492842110836e-05
0.00328520407141956,0.000187373149583646,0.000409344678972292,-1.61985044020131e-05,0.00245536432804873,-1.164697620715e-05,0.000117342565323348,0.00109660609824747,-0.000993996515444623,0.000191186049947036,-1.90901812168056e-05,0.000945902195075649,4.3721004524137e-05,0.000149505609454133,-4.65323636040844e-05,4.54789451286879e-05,-1.63231130464446e-05,1.14891061145302e-05,6.67492842110836e-05
-0.00218123677762286,-8.13420591821035e-05,0.000283019290290271,0.00045154806124925,0.000142276768154822,-5.8064772096021e-05,0.000240967203583391,3.90414966422935e-05,0.00041557013918986,-0.000393410920795648,5.18448160387275e-05,-0.000261404988654315,4.37133052914848e-05,-0.000257373348965068,0.000141918752662219,-0.00016083664073286,0.000172246860021476,2.11996991951832e-05,2.60881454115428e-05
0.00218123677762286,8.13420591821035e-05,-0.000283019290290271,-0.00045154806124925,-0.000142276768154822,5.8064772096021e-05,-0.000240967203583391,-3.90414966422935e-05,-0.00041557013918986,0.000393410920795648,-5.18448160387275e-05,0.000261404988654315,-4.37133052914848e-05,0.000257373348965068,-0.000141918752662219,0.00016083664073286,-0.000172246860021476,-2.11996991951832e-05,-2.60881454115428e-05
-0.000845727612165935,2.544658965178e-05,-0.000426416547187847,0.000177052452055183,-0.000872451822406022,3.89636967014482e-05,-0.000185837652005936,-0.000506449290192558,0.000246969237200285,6.57772868329728e-05,-1.16318827803641e-05,-0.000350746829493044,-4.18442874884423e-05,-0.000121539651668719,-9.73482837190064e-05,-9.96386501001116e-05,2.44735224572056e-06,-4.65192665272647e-05,-9.639795853492e-06
0.000845727612165935,-2.544658965178e-05,0.000426416547187847,-0.000177052452055183,0.000872451822406022,-3.89636967014482e-05,0.000185837652005936,0.000506449290192558,-0.000246969237200285,-6.57772868329728e-05,1.16318827803641e-05,0.000350746829493044,4.18442874884423e-05,0.000121539651668719,9.73482837190064e-05,9.96386501001116e-05,-2.44735224572056e-06,4.65192665272647e-05,9.639795853492e-06
-0.00151849074254944,-9.41060218637222e-05,4.01823170697508e-05,7.83644952142915e-06,-0.000914854940416681,-0.000110353914649932,6.96216056538442e-06,-0.000701275545698246,0.000539363198987012,-0.00050819752669316,2.70584364601781e-05,-0.000454624408746162,5.89196077396261e-05,-0.000190925752465366,0.00010546722507028,3.79855240888919e-05,7.59994437178936e-05,3.64424717293397e-05,-6.33883723414606e-06
0.00151849074254944,9.41060218637222e-05,-4.01823170697508e-05,-7.83644952142915e-06,0.000914854940416681,0.000110353914649932,-6.96216056538442e-06,0.000701275545698246,-0.000539363198987012,0.00050819752669316,-2.70584364601781e-05,0.000454624408746162,-5.89196077396261e-05,0.000190925752465366,-0.00010546722507028,-3.79855240888919e-05,-7.59994437178936e-05,-3.64424717293397e-05,6.33883723414606e-06
-0.0030830892528627,-0.000170433562626392,-9.0343391006483e-05,9.92021696270854e-05,-0.00208308487736003,9.00418337116244e-05,-0.000100693788296541,-0.000661322684379321,0.00075134204317306,-0.000202813985875774,3.35324409392938e-05,-0.000727666775344928,2.34684775639981e-05,-9.80693365002548e-05,6.72499734212028e-05,-3.94889390603413e-05,2.98138076880061e-05,-3.71951672730633e-06,-6.6277770951407e-05
0.0030830892528627,0.000170433562626392,9.0343391006483e-05,-9.92021696270854e-05,0.00208308487736003,-9.00418337116244e-05,0.000100693788296541,0.000661322684379321,-0.00075134204317306,0.000202813985875774,-3.35324409392938e-05,0.000727666775344928,-2.34684775639981e-05,9.80693365002548e-05,-6.72499734212028e-05,3.94889390603413e-05,-2.98138076880061e-05,3.71951672730633e-06,6.6277770951407e-05
-0.00161869889727856,9.22784268056483e-06,-0.000235825546769881,0.000320928277856069,9.27351085145979e-06,0.000127268459319907,0.000175495506912226,-7.79957525714711e-05,0.00039512246510783,-0.0004755699655833,1.42537300833865e-05,-0.000469911336553576,-0.000196515799102469,7.36261670162208e-06,0.000106163849668851,-0.000199610392661694,1.45377296251014e-05,6.95743228211108e-05,5.24343424272717e-06
0.00161869889727856,-9.22784268056483e-06,0.000235825546769881,-0.000320928277856069,-9.27351085145979e-06,-0.000127268459319907,-0.000175495506912226,7.79957525714711e-05,-0.00039512246510783,0.0004755699655833,-1.42537300833865e-05,0.000469911336553576,0.000196515799102469,-7.36261670162208e-06,-0.000106163849668851,0.000199610392661694,-1.45377296251014e-05,-6.95743228211108e-05,-5.24343424272717e-06
-0.000850842788673361,-1.71832878916292e-05,-0.000439990856759808,4.16062508398038e-05,-0.000868520865541851,6.41275337334728e-05,-0.0001315757758366,-0.000399781093600147,0.000330832188957165,0.000104751425828306,-6.3847406998805e-06,-0.000365222792630006,1.54834750537904e-05,-0.000104533477039367,-5.53135947853941e-05,-3.90331324294909e-05,1.64788226140599e-06,-4.77272575379749e-05,-1.14483558339485e-08
0.000850842788673361,1.71832878916292e-05,0.000439990856759808,-4.16062508398038e-05,0.000868520865541851,-6.41275337334728e-05,0.0001315757758366,0.000399781093600147,-0.000330832188957165,-0.000104751425828306,6.3847406998805e-06,0.000365222792630006,-1.54834750537904e-05,0.000104533477039367,5.53135947853941e-05,3.90331324294909e-05,-1.64788226140599e-06,4.77272575379749e-05,1.14483558339485e-08
-0.0031139036135872,-0.000179985395580148,0.000195130875908626,2.00413212244029e-06,-0.000544024819800725,0.000172844810050521,0.00024641478024391,0.000704513597832427,0.000284495157122938,-0.000362558822485981,2.47317075685711e-06,-0.000515290940051029,-0.000178346493110551,-0.000231805295350754,0.000243780913228203,-3.58252843660916e-06,8.65896665688157e-05,8.29203590090538e-05,3.41507269361024e-07
0.0031139036135872,0.000179985395580148,-0.000195130875908626,-2.00413212244029e-06,0.000544024819800725,-0.000172844810050521,-0.00024641478024391,-0.000704513597832427,-0.000284495157122938,0.000362558822485981,-2.47317075685711e-06,0.000515290940051029,0.000178346493110551,0.000231805295350754,-0.000243780913228203,3.58252843660916e-06,-8.65896665688157e-05,-8.29203590090538e-05,-3.41507269361024e-07
-0.000850842788673361,-1.71832878916292e-05,-0.000439990856759808,4.16062508398038e-05,-0.000868520865541851,6.41275337334728e-05,-0.0001315757758366,-0.000399781093600147,0.000330832188957165,0.000104751425828306,-6.3847406998805e-06,-0.000365222792630006,1.54834750537904e-05,-0.000104533477039367,-5.53135947853941e-05,-3.90331324294909e-05,1.64788226140599e-06,-4.77272575379749e-05,-1.14483558339485e-08
0.000850842788673361,1.71832878916292e-05,0.000439990856759808,-4.16062508398038e-05,0.000868520865541851,-6.41275337334728e-05,0.0001315757758366,0.000399781093600147,-0.000330832188957165,-0.000104751425828306,6.3847406998805e-06,0.000365222792630006,-1.54834750537904e-05,0.000104533477039367,5.53135947853941e-05,3.90331324294909e-05,-1.64788226140599e-06,4.77272575379749e-05,1.14483558339485e-08
-0.12370152010303,-0.000158264782381619,-0.216358185348476,-0.249972290424361,0.00152681681225055,0.001044726325069,0.000123883822452948,-0.0029580157720022,0.154178546192863,-0.0003328827353511,6.77134941721807e-05,-0.00527653246143091,0.00049577668432079,-0.000134532896485737,-9.15632908630565e-06,0.000143275200476342,0.000153868831474445,-1.24563510495687e-05,-0.000104101743341623
0.12370152010303,0.000158264782381619,0.216358185348476,0.249972290424361,-0.00152681681225055,-0.001044726325069,-0.000123883822452948,0.0029580157720022,-0.154178546192863,0.0003328827353511,-6.77134941721807e-05,0.00527653246143091,-0.00049577668432079,0.000134532896485737,9.15632908630565e-06,-0.000143275200476342,-0.000153868831474445,1.24563510495687e-05,0.000104101743341623
4.94180331022329e-05,6.75556705291565e-05,-0.000632286783369971,-0.00016824635479696,7.61185387854971e-05,1.78743025406299e-05,5.99894189651653e-05,-7.57575770242591e-05,0.000422653782585069,-3.02643142104271e-06,1.98817679890952e-05,0.000207877658064653,-5.36396359867195e-05,0.000155907267470755,1.530474408622e-05,4.84659822103285e-05,-6.82921386214016e-06,5.349803105804e-05,-2.8423228856812e-06
-4.94180331022329e-05,-6.75556705291565e-05,0.000632286783369971,0.00016824635479696,-7.61185387854971e-05,-1.78743025406299e-05,-5.99894189651653e-05,7.57575770242591e-05,-0.000422653782585069,3.02643142104271e-06,-1.98817679890952e-05,-0.000207877658064653,5.36396359867195e-05,-0.000155907267470755,-1.530474408622e-05,-4.84659822103285e-05,6.82921386214016e-06,-5.349803105804e-05,2.8423228856812e-06
-0.000268386417355968,-4.6125929570806e-05,-0.00024373026501615,-0.000753616554499825,0.000250881276112393,6.14177778722029e-05,2.73425126021745e-05,7.98226810135682e-05,0.000191069713678439,-6.13438273978128e-05,2.71840100621219e-05,0.000166929765962356,-0.000197341116594712,6.25739161072456e-05,-7.34925560573159e-05,8.25249260140577e-06,-6.83926689589424e-05,0.000107263081642797,2.31080241957885e-05
0.000268386417355968,4.6125929570806e-05,0.00024373026501615,0.000753616554499825,-0.000250881276112393,-6.14177778722029e-05,-2.73425126021745e-05,-7.98226810135682e-05,-0.000191069713678439,6.13438273978128e-05,-2.71840100621219e-05,-0.000166929765962356,0.000197341116594712,-6.25739161072456e-05,7.34925560573159e-05,-8.25249260140577e-06,6.83926689589424e-05,-0.000107263081642797,-2.31080241957885e-05
0.000310654167738787,-0.000242267005797053,-0.00109575162922169,0.000244259285193489,0.000267020188348659,0.000136594904624374,-8.97231289494636e-05,-1.15486696958107e-05,0.00038700150732782,7.58006817867243e-05,2.06705118479575e-05,-0.000136197317837165,0.000104402892516292,0.000169464765866743,-1.04495028554497e-05,0.000143629907431201,5.22407207070453e-05,-3.30975398942897e-05,-1.74911245881281e-05
-0.000310654167738787,0.000242267005797053,0.00109575162922169,-0.000244259285193489,-0.000267020188348659,-0.000136594904624374,8.97231289494636e-05,1.15486696958107e-05,-0.00038700150732782,-7.58006817867243e-05,-2.06705118479575e-05,0.000136197317837165,-0.000104402892516292,-0.000169464765866743,1.04495028554497e-05,-0.000143629907431201,-5.22407207070453e-05,3.30975398942897e-05,1.74911245881281e-05
-0.0822659386492491,0.000121692931658165,-0.484976827639311,-0.383144061455964,0.0033148457397315,0.00159896445533108,3.60052048117845e-06,-0.0502147297158632,0.204713026575351,-0.000673333448067672,-5.85471391736045e-05,0.000712155097110063,-0.00135761222734196,-0.000284665882983358,-0.000816742297634417,-9.30016934700085e-05,0.000851785611435955,-0.465707854955056,-0.000202773595532904
0.0822659386492491,-0.000121692931658165,0.484976827639311,0.383144061455964,-0.0033148457397315,-0.00159896445533108,-3.60052048117845e-06,0.0502147297158632,-0.204713026575351,0.000673333448067672,5.85471391736045e-05,-0.000712155097110063,0.00135761222734196,0.000284665882983358,0.000816742297634417,9.30016934700085e-05,-0.000851785611435955,0.465707854955056,0.000202773595532904
-0.114547303957584,0.000260722704639928,-0.505070691491372,-0.418458802989075,0.00845173088505746,0.000438157671739812,-9.57388335852914e-05,-0.00838784221508605,0.0835275658462988,-0.000387294874408134,-0.00143647051508073,-0.000823031555960575,0.000191818070471971,1.52604033680015e-05,-0.00100715665417761,0.000301575680180068,-0.000219664687370582,-0.530640299578437,-0.000724983436132128
0.114547303957584,-0.000260722704639928,0.505070691491372,0.418458802989075,-0.00845173088505746,-0.000438157671739812,9.57388335852914e-05,0.00838784221508605,-0.0835275658462988,0.000387294874408134,0.00143647051508073,0.000823031555960575,-0.000191818070471971,-1.52604033680015e-05,0.00100715665417761,-0.000301575680180068,0.000219664687370582,0.530640299578437,0.000724983436132128
-0.6377543461985,-0.000285184965313565,-0.00549421294570031,-0.00101128346985909,0.303201413767819,0.000373805514498816,0.00016865474805262,-0.0164310325941522,0.0497013269230928,-0.00171122515526021,0.000170672180006018,0.00059059477242382,-0.000763972246112176,-0.000749823682915814,-0.893709443575923,0.295631874119885,0.000193791946083248,7.26056625077519e-06,-0.000355565557553599
0.6377543461985,0.000285184965313565,0.00549421294570031,0.00101128346985909,-0.303201413767819,-0.000373805514498816,-0.00016865474805262,0.0164310325941522,-0.0497013269230928,0.00171122515526021,-0.000170672180006018,-0.00059059477242382,0.000763972246112176,0.000749823682915814,0.893709443575923,-0.295631874119885,-0.000193791946083248,-7.26056625077519e-06,0.000355565557553599
-0.795856702417794,0.00038424784554592,-0.00457597693740572,0.00144273191918644,0.607334638239883,-4.65579480233003e-05,0.000724442153133079,-0.00512796277021065,0.263818621001016,0.000584203100443084,0.000122242218552059,0.000997485263824192,0.00103307776582581,-0.00116121421708124,-1.1525441260023,0.000422866994427065,-0.000388425043739147,-0.000462049560174821,5.08905039947232e-05
0.795856702417794,-0.00038424784554592,0.00457597693740572,-0.00144273191918644,-0.607334638239883,4.65579480233003e-05,-0.000724442153133079,0.00512796277021065,-0.263818621001016,-0.000584203100443084,-0.000122242218552059,-0.000997485263824192,-0.00103307776582581,0.00116121421708124,1.1525441260023,-0.000422866994427065,0.000388425043739147,0.000462049560174821,-5.08905039947232e-05
-1.52772947429031,-0.000584793561032475,-0.00895847534887973,0.00655325633390834,1.15767921059168,0.000304037171881163,0.000175299010139407,-0.97557205083676,0.00075949883239964,1.26645554249422,0.84334485078163,-6.57053285524356e-05,0.000506375192996118,1.00290865335635,0.00158183847729355,-0.000109790093800211,0.00284770697256419,1.31279358176826e-05,0.000148301607888327
1.52772947429031,0.000584793561032475,0.00895847534887973,-0.00655325633390834,-1.15767921059168,-0.000304037171881163,-0.000175299010139407,0.97557205083676,-0.00075949883239964,-1.26645554249422,-0.84334485078163,6.57053285524356e-05,-0.000506375192996118,-1.00290865335635,-0.00158183847729355,0.000109790093800211,-0.00284770697256419,-1.31279358176826e-05,-0.000148301607888327
-1.93899609796184,-4.67588089235867e-05,-0.495994986622064,0.0220897788925931,1.38370171341264,0.000432504859246051,0.000540590695444473,-1.22827068401672,-0.00155133154549876,1.99367208251436,0.536076399314351,0.000374115663329849,0.988319769125295,-0.000254999708799977,-0.000370008907708053,-0.6568972488726,0.00097221274763523,4.91308008864973e-05,-0.000401538389056729
1.93899609796184,4.67588089235867e-05,0.495994986622064,-0.0220897788925931,-1.38370171341264,-0.000432504859246051,-0.000540590695444473,1.22827068401672,0.00155133154549876,-1.99367208251436,-0.536076399314351,-0.000374115663329849,-0.988319769125295,0.000254999708799977,0.000370008907708053,0.6568972488726,-0.00097221274763523,-4.91308008864973e-05,0.000401538389056729
-1.35723056523555,0.000400983495571289,-0.000580246848763536,0.00569865288736845,1.14992128976815,-0.000819115900655962,-0.000533414483991664,-0.872964064601263,0.00487781875965914,1.21029713238506,0.442221624516964,-4.45746779073557e-05,-0.652218775323416,0.332994970393044,0.00308988862101155,0.487967487818122,3.22268753920283e-05,-0.000187607415148685,0.000109364389694251
1.35723056523555,-0.000400983495571289,0.000580246848763536,-0.00569865288736845,-1.14992128976815,0.000819115900655962,0.000533414483991664,0.872964064601263,-0.00487781875965914,-1.21029713238506,-0.442221624516964,4.45746779073557e-05,0.652218775323416,-0.332994970393044,-0.00308988862101155,-0.487967487818122,-3.22268753920283e-05,0.000187607415148685,-0.000109364389694251
-1.48832476622236,-1.73197969773112e-05,-0.247174409017475,0.0162277799433074,1.34623277336278,-0.000699610644941235,-0.000309960660709981,-1.17372319315112,-0.00836992695673501,1.72213811439397,0.000928977723379332,-0.000136887600135398,3.460819112831e-05,-0.733621763961384,0.000938313001246018,0.000827588038247421,0.000309411802154385,0.000260624747239644,0.000262840466565225
1.48832476622236,1.73197969773112e-05,0.247174409017475,-0.0162277799433074,-1.34623277336278,0.000699610644941235,0.000309960660709981,1.17372319315112,0.00836992695673501,-1.72213811439397,-0.000928977723379332,0.000136887600135398,-3.460819112831e-05,0.733621763961384,-0.000938313001246018,-0.000827588038247421,-0.000309411802154385,-0.000260624747239644,-0.000262840466565225
-0.567681531739255,-0.000821959061632588,-0.0111432503180963,0.000871934036475358,0.40114552664848,-8.13773269627922e-05,6.2692218362308e-05,-0.323070636728051,-0.0011128639350679,0.281432924709255,0.000429049987489878,-0.00183502779619257,-0.623381377409179,-0.000900453970281231,0.000322176808242726,0.000228051694637853,-0.000732809057665186,7.18741144147238e-05,-0.000165450978257075
0.567681531739255,0.000821959061632588,0.0111432503180963,-0.000871934036475358,-0.40114552664848,8.13773269627922e-05,-6.2692218362308e-05,0.323070636728051,0.0011128639350679,-0.281432924709255,-0.000429049987489878,0.00183502779619257,0.623381377409179,0.000900453970281231,-0.000322176808242726,-0.000228051694637853,0.000732809057665186,-7.18741144147238e-05,0.000165450978257075
-0.623960434024144,-0.000750454876942285,-0.0117542774081093,-0.000105489887093603,0.481976138620821,-0.000649231835462186,-0.000665297804222743,-0.431998080144602,0.00148496754151169,0.450470153649568,0.000294036978325321,0.000873553908905088,-0.596591524421289,-0.3825999525053,0.000537795510080441,-0.000419654875247337,5.83114190945896e-05,-0.00013591939161957,-0.000151484026521798
0.623960434024144,0.000750454876942285,0.0117542774081093,0.000105489887093603,-0.481976138620821,0.000649231835462186,0.000665297804222743,0.431998080144602,-0.00148496754151169,-0.450470153649568,-0.000294036978325321,-0.000873553908905088,0.596591524421289,0.3825999525053,-0.000537795510080441,0.000419654875247337,-5.83114190945896e-05,0.00013591939161957,0.000151484026521798
-0.579933023821608,-4.31362189658814e-05,-0.00608849695780568,0.00425362001854688,0.438412488020428,0.000406564250061847,-0.000480977436451302,-0.0786643976016864,0.000968403572047334,0.00104403683795397,0.000337372117907795,-0.000681256894130625,-0.662441352372708,-0.00166014168750967,-0.000341355599848556,-0.00109485021893806,0.000512309072355036,9.83584993613331e-05,-0.000263572012210524
0.579933023821608,4.31362189658814e-05,0.00608849695780568,-0.00425362001854688,-0.438412488020428,-0.000406564250061847,0.000480977436451302,0.0786643976016864,-0.000968403572047334,-0.00104403683795397,-0.000337372117907795,0.000681256894130625,0.662441352372708,0.00166014168750967,0.000341355599848556,0.00109485021893806,-0.000512309072355036,-9.83584993613331e-05,0.000263572012210524
-0.541411959082821,-6.1464186752943e-05,-0.00629674066912403,0.000776087341176836,0.488511253380548,-0.000530631290356348,-0.00110686102885503,-0.279748571848522,0.00178232706182107,0.23689883288509,4.91354179989714e-05,-0.00159857238381503,-0.476975125525762,-0.270443627899472,5.52022778549365e-05,-0.00102582074768527,0.000189462231331214,3.92387361008642e-07,-0.000383381233799502
0.541411959082821,6.1464186752943e-05,0.00629674066912403,-0.000776087341176836,-0.488511253380548,0.000530631290356348,0.00110686102885503,0.279748571848522,-0.00178232706182107,-0.23689883288509,-4.91354179989714e-05,0.00159857238381503,0.476975125525762,0.270443627899472,-5.52022778549365e-05,0.00102582074768527,-0.000189462231331214,-3.92387361008642e-07,0.000383381233799502
-0.17856122628093,-0.000149038665121466,-0.000710539577817365,-0.00035044740657339,-0.159154559626447,0.000545031923722337,-0.000513401712310988,-0.0190454113617198,0.0105382303320115,-0.000579253533107177,5.41684496013579e-05,-0.000572426450604988,0.000112900883814799,-0.000302783964341489,-0.000284959435568751,-0.000519950219279947,0.000252463328496311,-0.000261410299945336,0.000162929797935002
0.17856122628093,0.000149038665121466,0.000710539577817365,0.00035044740657339,0.159154559626447,-0.000545031923722337,0.000513401712310988,0.0190454113617198,-0.0105382303320115,0.000579253533107177,-5.41684496013579e-05,0.000572426450604988,-0.000112900883814799,0.000302783964341489,0.000284959435568751,0.000519950219279947,-0.000252463328496311,0.000261410299945336,-0.000162929797935002
-0.121179706705047,-0.000403019880663358,-4.15347799300711e-05,0.00241747922430363,-0.0293655429561286,0.000524412768786145,-0.000197155204703851,-0.00622347701773002,0.0035758788305673,-0.000942142491056623,9.8731566507798e-05,-0.00144850756602843,-0.000543639051474302,6.74769077535655e-05,-1.36549246943198e-05,-7.50171475008801e-05,1.254558155347e-05,-8.59104554175252e-05,-0.000353532201950036
0.121179706705047,0.000403019880663358,4.15347799300711e-05,-0.00241747922430363,0.0293655429561286,-0.000524412768786145,0.000197155204703851,0.00622347701773002,-0.0035758788305673,0.000942142491056623,-9.8731566507798e-05,0.00144850756602843,0.000543639051474302,-6.74769077535655e-05,1.36549246943198e-05,7.50171475008801e-05,-1.254558155347e-05,8.59104554175252e-05,0.000353532201950036
-1.0364212572206,-5.68004634369778e-05,-0.000422079465361858,0.00414879475848434,-1.59713178553051,0.000110751300778294,0.000492922357239805,-0.867768386474869,0.524826721604677,-0.000488408585712311,0.000552669927037451,-0.00317432339820395,-7.433675329203e-05,0.000418475943290083,0.00089449485084821,0.00112755895769341,-0.00491436884985271,0.000825485888450955,0.619013037325141
1.0364212572206,5.68004634369778e-05,0.000422079465361858,-0.00414879475848434,1.59713178553051,-0.000110751300778294,-0.000492922357239805,0.867768386474869,-0.524826721604677,0.000488408585712311,-0.000552669927037451,0.00317432339820395,7.433675329203e-05,-0.000418475943290083,-0.00089449485084821,-0.00112755895769341,0.00491436884985271,-0.000825485888450955,-0.619013037325141
-1.04956193955884,-9.26220213786115e-06,-0.00508871018837928,0.00412301504943976,-1.65469867567352,0.000399260937780557,0.000652876162657354,-1.06605238184826,0.520319048768957,0.000718856954527842,0.000177748869236345,-0.00152600546512679,0.000691763061936464,-0.00459472476900443,0.000313667744516324,-5.49385360899615e-05,-0.614011639571044,0.000356484321354503,0.000942793076778025
1.04956193955884,9.26220213786115e-06,0.00508871018837928,-0.00412301504943976,1.65469867567352,-0.000399260937780557,-0.000652876162657354,1.06605238184826,-0.520319048768957,-0.000718856954527842,-0.000177748869236345,0.00152600546512679,-0.000691763061936464,0.00459472476900443,-0.000313667744516324,5.49385360899615e-05,0.614011639571044,-0.000356484321354503,-0.000942793076778025
-1.21068899806832,0.000176759944195776,0.00224121725680704,0.0338289612075987,-2.16223745894524,-0.000518841350490369,0.000975598805341596,-1.11482481774649,0.708646811047342,-0.000903353236665336,0.000113371325855104,-0.00108436299112358,-0.000311715089650254,-0.000293226111870221,0.000432818320851728,-0.00213142908158511,0.00236746448868217,0.00149458779213272,0.588340813756499
1.21068899806832,-0.000176759944195776,-0.00224121725680704,-0.0338289612075987,2.16223745894524,0.000518841350490369,-0.000975598805341596,1.11482481774649,-0.708646811047342,0.000903353236665336,-0.000113371325855104,0.00108436299112358,0.000311715089650254,0.000293226111870221,-0.000432818320851728,0.00213142908158511,-0.00236746448868217,-0.00149458779213272,-0.588340813756499
-1.43797813929122,-0.000162864420145263,-0.00423695841570949,0.0150042429872359,-2.32068387153017,6.85219500221494e-05,0.000157055285629665,-1.34457614900485,0.813598614344354,0.00142053074211322,0.00024322639834212,-0.00116179768641979,-0.000290654134722813,-0.00330543167745503,0.000719351350077249,-0.000431920026449224,-0.639976504836161,0.00068842009883023,-0.00032696789653866
1.43797813929122,0.000162864420145263,0.00423695841570949,-0.0150042429872359,2.32068387153017,-6.85219500221494e-05,-0.000157055285629665,1.34457614900485,-0.813598614344354,-0.00142053074211322,-0.00024322639834212,0.00116179768641979,0.000290654134722813,0.00330543167745503,-0.000719351350077249,0.000431920026449224,0.639976504836161,-0.00068842009883023,0.00032696789653866
-0.67417692879821,-0.000514818682269,-0.00297003813709682,0.0980599984759294,-1.24324335707777,-0.000494638096617634,0.000706182349612439,-0.697071516878204,0.350094180995371,-0.00050656993040898,0.000100302735356198,-0.00377690548540378,-6.75725215407217e-05,-0.000251718183047387,-9.36621634143171e-05,3.01195279862973e-05,0.311545651443834,0.000366843251888128,0.00267829798682711
0.67417692879821,0.000514818682269,0.00297003813709682,-0.0980599984759294,1.24324335707777,0.000494638096617634,-0.000706182349612439,0.697071516878204,-0.350094180995371,0.00050656993040898,-0.000100302735356198,0.00377690548540378,6.75725215407217e-05,0.000251718183047387,9.36621634143171e-05,-3.01195279862973e-05,-0.311545651443834,-0.000366843251888128,-0.00267829798682711
-0.846091538367797,-0.000456832184545999,-0.00404874038804344,0.0101329965865088,-1.46062034603292,-2.65580417570935e-05,0.000101128516845353,-0.83533881548926,0.370405911356898,0.000237246828426738,0.000126236925888339,-0.00360513834830989,-6.66067288480035e-06,-0.00225528306299394,0.000205511542093366,0.000521707413963708,-0.000591226379930288,0.00013218614084107,-0.301846187447089
0.846091538367797,0.000456832184545999,0.00404874038804344,-0.0101329965865088,1.46062034603292,2.65580417570935e-05,-0.000101128516845353,0.83533881548926,-0.370405911356898,-0.000237246828426738,-0.000126236925888339,0.00360513834830989,6.66067288480035e-06,0.00225528306299394,-0.000205511542093366,-0.000521707413963708,0.000591226379930288,-0.00013218614084107,0.301846187447089
-0.226851109819242,-0.000211443376550755,-0.00636471816352442,-0.000667243487261836,-0.403255216622653,0.000537331669501246,0.000161582352722634,-0.158986021044623,0.0439024423398824,-5.79940652220346e-05,0.000123339448913984,-0.00164360770058476,0.000538050469951726,-0.000183732722641641,0.000201147231749815,-0.000652304994904416,0.00830347891475362,-7.20734307855528e-05,-0.000249308968485292
0.226851109819242,0.000211443376550755,0.00636471816352442,0.000667243487261836,0.403255216622653,-0.000537331669501246,-0.000161582352722634,0.158986021044623,-0.0439024423398824,5.79940652220346e-05,-0.000123339448913984,0.00164360770058476,-0.000538050469951726,0.000183732722641641,-0.000201147231749815,0.000652304994904416,-0.00830347891475362,7.20734307855528e-05,0.000249308968485292
-0.262862858757955,-0.000308284080391634,-0.00257259691570499,0.000307303198387342,-0.399096967503861,0.000400453797122705,5.41032627963121e-06,-0.124616850754931,0.0689742742171229,-0.000454385595615225,0.00011247146887569,-0.00207373105755286,0.000402464653918947,-0.00130208366298285,8.69165636612554e-05,-0.00118566496749352,0.000526150263843058,2.49470646558673e-05,-0.00232271653337686
0.262862858757955,0.000308284080391634,0.00257259691570499,-0.000307303198387342,0.399096967503861,-0.000400453797122705,-5.41032627963121e-06,0.124616850754931,-0.0689742742171229,0.000454385595615225,-0.00011247146887569,0.00207373105755286,-0.000402464653918947,0.00130208366298285,-8.69165636612554e-05,0.00118566496749352,-0.000526150263843058,-2.49470646558673e-05,0.00232271653337686
-0.0563581252119055,-0.000268312417845006,-0.0522316278032173,-0.0611787392852279,-0.0013127347360577,0.000138148995201392,-5.41947731912957e-05,-0.00119689428290247,0.00652100968135735,-0.000936536787088758,5.67659599836458e-05,-0.000856338168605904,0.00205752303972459,0.000405088337889082,-0.000107158488253063,0.000336606504199807,0.000242492587266076,-0.000212599977369695,-0.000115206658945196
0.0563581252119055,0.000268312417845006,0.0522316278032173,0.0611787392852279,0.0013127347360577,-0.000138148995201392,5.41947731912957e-05,0.00119689428290247,-0.00652100968135735,0.000936536787088758,-5.67659599836458e-05,0.000856338168605904,-0.00205752303972459,-0.000405088337889082,0.000107158488253063,-0.000336606504199807,-0.000242492587266076,0.000212599977369695,0.000115206658945196
-0.0240496598736395,-8.60398817514637e-05,-0.0704007324641152,-0.0161924868564591,-0.000664274076918337,0.000208856148794885,-0.000200303797653783,-0.00170956684148027,0.00486494679985629,-0.000325986967133479,5.65416644357102e-05,-0.00165335472982697,0.00126088991648725,0.000567299492590557,-8.14388118925762e-05,-4.76520763357535e-05,0.000192400662416313,-9.93690804519472e-05,-0.000167398572865465
0.0240496598736395,8.60398817514637e-05,0.0704007324641152,0.0161924868564591,0.000664274076918337,-0.000208856148794885,0.000200303797653783,0.00170956684148027,-0.00486494679985629,0.000325986967133479,-5.65416644357102e-05,0.00165335472982697,-0.00126088991648725,-0.000567299492590557,8.14388118925762e-05,4.76520763357535e-05,-0.000192400662416313,9.93690804519472e-05,0.000167398572865465
-1.40532051547332,-0.000151353901684136,0.0153449802391123,0.608602158503529,1.29490294703081,0.000398256723307209,-4.70037703976318e-06,-0.00104037890055129,0.622987796430362,-1.04078185210866,0.000271740326142039,0.000182400984075428,0.00763404192910176,0.747232407913034,0.000898205621813976,4.29337741885236e-05,0.000308506144652435,0.000201418140438675,-1.08201600187369e-05
1.40532051547332,0.000151353901684136,-0.0153449802391123,-0.608602158503529,-1.29490294703081,-0.000398256723307209,4.70037703976318e-06,0.00104037890055129,-0.622987796430362,1.04078185210866,-0.000271740326142039,-0.000182400984075428,-0.00763404192910176,-0.747232407913034,-0.000898205621813976,-4.29337741885236e-05,-0.000308506144652435,-0.000201418140438675,1.08201600187369e-05
-0.00761288030311734,-3.82008368064893e-05,-0.00147427825328043,-0.000271728067618943,-0.00265380049615026,-1.97709203255399e-06,1.35163837853555e-05,-0.00238722989862577,0.00181712043720818,-0.000541153181204471,8.07634055888686e-05,-0.000333129273910022,6.134422972539e-05,-0.000182496624518429,-8.04274070555743e-06,-0.000169095216187323,0.000160795681116848,-1.47600498220224e-06,4.07745716111981e-05
0.00761288030311734,3.82008368064893e-05,0.00147427825328043,0.000271728067618943,0.00265380049615026,1.97709203255399e-06,-1.35163837853555e-05,0.00238722989862577,-0.00181712043720818,0.000541153181204471,-8.07634055888686e-05,0.000333129273910022,-6.134422972539e-05,0.000182496624518429,8.04274070555743e-06,0.000169095216187323,-0.000160795681116848,1.47600498220224e-06,-4.07745716111981e-05
-1.50410448620892,0.000382897662009707,0.00289158117557315,0.442367910664263,1.26803258100659,-0.000940762243741423,-0.000660683012101595,-0.386608532503745,0.709019201816348,-0.777293372267318,0.000993891692761683,-0.000368792468242699,1.09452886626735,-0.00161877536386759,0.000771115061687425,-0.452615458375728,0.000152486100638682,0.000682141617387229,0.000374331453289675
1.50410448620892,-0.000382897662009707,-0.00289158117557315,-0.442367910664263,-1.26803258100659,0.000940762243741423,0.000660683012101595,0.386608532503745,-0.709019201816348,0.777293372267318,-0.000993891692761683,0.000368792468242699,-1.09452886626735,0.00161877536386759,-0.000771115061687425,0.452615458375728,-0.000152486100638682,-0.000682141617387229,-0.000374331453289675
-0.00574639452370386,9.09695129156815e-05,-0.00124879334443027,0.000196961650981606,-0.00465857884596898,-0.000127266909679323,8.09723064377395e-05,-0.00325360104580256,0.00225666840322935,-0.000384782651570806,8.11674688685453e-05,-0.00050434466361383,-0.000120034774105917,-0.000251924365888326,-2.22888631270416e-05,-0.00021219330374857,2.0334220233687e-05,-6.32106992647613e-06,2.16778725656309e-05
0.00574639452370386,-9.09695129156815e-05,0.00124879334443027,-0.000196961650981606,0.00465857884596898,0.000127266909679323,-8.09723064377395e-05,0.00325360104580256,-0.00225666840322935,0.000384782651570806,-8.11674688685453e-05,0.00050434466361383,0.000120034774105917,0.000251924365888326,2.22888631270416e-05,0.00021219330374857,-2.0334220233687e-05,6.32106992647613e-06,-2.16778725656309e-05
-1.68694503019729,-0.000392126912368851,0.00570636002718019,0.413600097666783,1.68246090677635,-1.1962337194612e-05,-9.12712352885353e-05,-0.00441322083561886,0.690240464633787,-1.35658223060239,0.000118647078414539,0.000351748973171807,-0.00220348966297952,0.467771478160306,0.000872573686665033,0.66863120601866,0.00035575902363574,0.000456405047545411,-0.000836924219375114
1.68694503019729,0.000392126912368851,-0.00570636002718019,-0.413600097666783,-1.68246090677635,1.1962337194612e-05,9.12712352885353e-05,0.00441322083561886,-0.690240464633787,1.35658223060239,-0.000118647078414539,-0.000351748973171807,0.00220348966297952,-0.467771478160306,-0.000872573686665033,-0.66863120601866,-0.00035575902363574,-0.000456405047545411,0.000836924219375114
-0.00389736283519339,-3.49580909143206e-05,-0.0014267344343479,0.000672849831352607,-0.00318556965866525,-0.000168605138303003,4.70748718299166e-05,-0.00297068242418501,0.00174507798336454,5.78021452013919e-05,6.79681362703286e-05,-0.000366714020009743,-6.41377189053217e-05,-0.000245844910674735,-2.78259574544371e-05,-0.000152120229765923,0.000138358236758956,1.5498033730462e-06,-5.70395007145177e-05
0.00389736283519339,3.49580909143206e-05,0.0014267344343479,-0.000672849831352607,0.00318556965866525,0.000168605138303003,-4.70748718299166e-05,0.00297068242418501,-0.00174507798336454,-5.78021452013919e-05,-6.79681362703286e-05,0.000366714020009743,6.41377189053217e-05,0.000245844910674735,2.78259574544371e-05,0.000152120229765923,-0.000138358236758956,-1.5498033730462e-06,5.70395007145177e-05
-1.92467659610006,0.000794877862881005,-0.000997408514859097,0.562325190084341,1.48982997339331,0.000307870352935188,-0.000132787604410737,-0.391605417690049,0.834698176575082,-1.19317637012984,-2.80006185713626e-05,0.00110193177058469,1.08637723783926,-0.765024495164137,0.377288757370499,0.807330167873592,-0.000193666994593149,-1.31670441983728e-06,-0.0003839251718482
1.92467659610006,-0.000794877862881005,0.000997408514859097,-0.562325190084341,-1.48982997339331,-0.000307870352935188,0.000132787604410737,0.391605417690049,-0.834698176575082,1.19317637012984,2.80006185713626e-05,-0.00110193177058469,-1.08637723783926,0.765024495164137,-0.377288757370499,-0.807330167873592,0.000193666994593149,1.31670441983728e-06,0.0003839251718482
-0.00381597374223522,-9.92938485822641e-05,-0.00105135178812234,0.000452653898652544,-0.00352663612120094,-0.000142709334310154,-7.50612909877726e-05,-0.00238364637271607,0.00163715444980513,4.73267948911534e-05,3.82189465892901e-05,-0.000590876724163213,-0.000110516895915745,-0.000231437737171839,6.57725101204543e-05,-9.73956372889295e-05,2.6952642421506e-05,-5.83978883843997e-06,-6.74076207768485e-05
0.00381597374223522,9.92938485822641e-05,0.00105135178812234,-0.000452653898652544,0.00352663612120094,0.000142709334310154,7.50612909877726e-05,0.00238364637271607,-0.00163715444980513,-4.73267948911534e-05,-3.82189465892901e-05,0.000590876724163213,0.000110516895915745,0.000231437737171839,-6.57725101204543e-05,9.73956372889295e-05,-2.6952642421506e-05,5.83978883843997e-06,6.74076207768485e-05
-0.733582794639766,-0.000254568290989434,-0.00570343744818226,0.0341927071784509,0.685522234158753,5.19728270111554e-05,0.000427209866471142,-0.0118783546486206,0.267010412079291,-0.718334747733364,0.000638039529295716,0.00114666944343905,-0.495572611425379,-0.000532178098933785,-3.89562414587697e-05,7.40595903587814e-05,-0.000210141790465768,9.54878881205456e-06,-0.000258988116577491
0.733582794639766,0.000254568290989434,0.00570343744818226,-0.0341927071784509,-0.685522234158753,-5.19728270111554e-05,-0.000427209866471142,0.0118783546486206,-0.267010412079291,0.718334747733364,-0.000638039529295716,-0.00114666944343905,0.495572611425379,0.000532178098933785,3.89562414587697e-05,-7.40595903587814e-05,0.000210141790465768,-9.54878881205456e-06,0.000258988116577491
-0.00434926022721492,-5.51750935176844e-05,-0.000687701037513981,0.000339887044915853,-0.00338870071965608,-2.21522252975168e-05,-6.20952137234625e-05,-0.00174419139664097,0.0010006158816853,-0.000388560573257114,5.09391266091372e-05,-0.000627544786621653,-2.61976861522416e-05,-0.000109729111459354,-6.9981734641806e-05,-0.00012089833999519,0.000145655294257603,3.78643993958703e-06,-6.59922075301385e-05
0.00434926022721492,5.51750935176844e-05,0.000687701037513981,-0.000339887044915853,0.00338870071965608,2.21522252975168e-05,6.20952137234625e-05,0.00174419139664097,-0.0010006158816853,0.000388560573257114,-5.09391266091372e-05,0.000627544786621653,2.61976861522416e-05,0.000109729111459354,6.9981734641806e-05,0.00012089833999519,-0.000145655294257603,-3.78643993958703e-06,6.59922075301385e-05
-0.881759510723825,-0.000960914967374286,-0.00113379546976437,0.246158072108898,0.774209157726666,-0.000255367050829046,9.81184122176867e-05,-0.0171437324386528,0.387194993479628,-0.762284601897151,5.8726090184641e-05,0.000973164877763659,-0.00244638944000074,-0.470426306050889,0.000400292398287403,-0.00662266445531388,0.000175764100756319,-0.000506985965569899,-0.000352992286123291
0.881759510723825,0.000960914967374286,0.00113379546976437,-0.246158072108898,-0.774209157726666,0.000255367050829046,-9.81184122176867e-05,0.0171437324386528,-0.387194993479628,0.762284601897151,-5.8726090184641e-05,-0.000973164877763659,0.00244638944000074,0.470426306050889,-0.000400292398287403,0.00662266445531388,-0.000175764100756319,0.000506985965569899,0.000352992286123291
-0.00594994917696265,-7.84185216665363e-05,-0.000599823361890418,-0.000207441577215582,-0.00687099121835542,1.30319304695693e-05,-6.76282060367686e-05,-0.00121618488201977,0.000728710277098648,-0.000386770735063771,5.99336569933689e-05,-0.000961422218598436,4.5697352828218e-05,-0.000217922091378212,7.53179087435637e-05,-0.000130935858894245,8.84530757931725e-06,-1.85202426335524e-06,-0.000100945746537969
0.00594994917696265,7.84185216665363e-05,0.000599823361890418,0.000207441577215582,0.00687099121835542,-1.30319304695693e-05,6.76282060367686e-05,0.00121618488201977,-0.000728710277098648,0.000386770735063771,-5.99336569933689e-05,0.000961422218598436,-4.5697352828218e-05,0.000217922091378212,-7.53179087435637e-05,0.000130935858894245,-8.84530757931725e-06,1.85202426335524e-06,0.000100945746537969
-0.688354785502051,0.000405737650646988,-3.04077640208861e-05,0.0268809849653692,0.650751608951031,0.000819987729829245,0.00084277329291705,-0.00324565942287362,0.313867018380413,-0.616607042375553,0.000176820275449908,0.000405705851039852,-0.412131175281455,0.00140158884741845,-0.000163464428454671,-0.433452890762824,0.000382127632664063,0.000223229581644271,-0.00014290195730551
0.688354785502051,-0.000405737650646988,3.04077640208861e-05,-0.0268809849653692,-0.650751608951031,-0.000819987729829245,-0.00084277329291705,0.00324565942287362,-0.313867018380413,0.616607042375553,-0.000176820275449908,-0.000405705851039852,0.412131175281455,-0.00140158884741845,0.000163464428454671,0.433452890762824,-0.000382127632664063,-0.000223229581644271,0.00014290195730551
-0.00286147042917936,-0.00012899423043179,-0.000307288307130537,5.87362226010036e-05,-0.00215380860160032,0.000100695323194507,-8.16980852285554e-05,-0.000655248561311415,0.000751240425250411,-0.00027967427114023,3.17339723506605e-05,-0.000636648104753802,3.41133467370013e-05,-0.000172642741841357,4.32150696568948e-05,-4.86093817259325e-05,8.48935090399944e-05,-3.15120643197731e-06,-7.31311049284304e-08
0.00286147042917936,0.00012899423043179,0.000307288307130537,-5.87362226010036e-05,0.00215380860160032,-0.000100695323194507,8.16980852285554e-05,0.000655248561311415,-0.000751240425250411,0.00027967427114023,-3.17339723506605e-05,0.000636648104753802,-3.41133467370013e-05,0.000172642741841357,-4.32150696568948e-05,4.86093817259325e-05,-8.48935090399944e-05,3.15120643197731e-06,7.31311049284304e-08
-0.809352122270641,0.000867665014966994,0.0013917535464255,0.185340596854981,0.630414237880494,-0.000955717489843572,-0.000837602706851861,-0.00309064544298812,0.303181766430953,-0.703089540937424,-0.000139226849318422,0.000297007573778816,-0.405414832757855,-0.00975440186286755,-0.000320924928151551,-0.586956353240703,0.00135500210172023,-0.000142941399801547,0.000388034944217316
0.809352122270641,-0.000867665014966994,-0.0013917535464255,-0.185340596854981,-0.630414237880494,0.000955717489843572,0.000837602706851861,0.00309064544298812,-0.303181766430953,0.703089540937424,0.000139226849318422,-0.000297007573778816,0.405414832757855,0.00975440186286755,0.000320924928151551,0.586956353240703,-0.00135500210172023,0.000142941399801547,-0.000388034944217316
-0.00217068511019879,-0.000153752808927589,-0.000346453459440773,8.5589926347241e-05,-0.00137596330885309,8.35398458216892e-05,-6.90288725087249e-05,-0.000570432727933661,0.000724905521932635,-0.00012163155591782,2.22226539018046e-05,-0.000708248411863417,5.08710368635002e-06,-0.00024572367080167,2.52221784765787e-05,-8.773937217672e-05,6.79344222763515e-05,-9.7834817616565e-06,-2.95656285211718e-07
0.00217068511019879,0.000153752808927589,0.000346453459440773,-8.5589926347241e-05,0.00137596330885309,-8.35398458216892e-05,6.90288725087249e-05,0.000570432727933661,-0.000724905521932635,0.00012163155591782,-2.22226539018046e-05,0.000708248411863417,-5.08710368635002e-06,0.00024572367080167,-2.52221784765787e-05,8.773937217672e-05,-6.79344222763515e-05,9.7834817616565e-06,2.95656285211718e-07
-1.013104954906,0.00063019281462211,-0.713482409343246,-0.00359432944968254,0.00113165304545973,-4.00407553441152e-06,-3.67886598243195e-05,-0.718597919892331,0.388036447231139,0.589699979064926,-2.21552119999362,-0.000471195411795505,-0.00369078270887965,0.55692667306488,0.000582467640584649,3.55888583645833e-05,-0.694625702934415,-0.000443103541724468,1.36852189656745e-06
1.013104954906,-0.00063019281462211,0.713482409343246,0.00359432944968254,-0.00113165304545973,4.00407553441152e-06,3.67886598243195e-05,0.718597919892331,-0.388036447231139,-0.589699979064926,2.21552119999362,0.000471195411795505,0.00369078270887965,-0.55692667306488,-0.000582467640584649,-3.55888583645833e-05,0.694625702934415,0.000443103541724468,-1.36852189656745e-06
-1.29350302428428,-3.8036707180399e-07,-0.691208484319503,-0.331958644247284,0.525054707607951,6.52698919701553e-05,-0.000283440757330701,-0.899527879664582,0.00874125617400886,0.828812920008815,-2.04615028578291,-0.000136161355410824,0.000839676997318184,-0.000869479781557563,0.000755822113968819,-0.00135759685173243,0.787154327098017,5.35929185936705e-05,-0.00115021482483575
1.29350302428428,3.8036707180399e-07,0.691208484319503,0.331958644247284,-0.525054707607951,-6.52698919701553e-05,0.000283440757330701,0.899527879664582,-0.00874125617400886,-0.828812920008815,2.04615028578291,0.000136161355410824,-0.000839676997318184,0.000869479781557563,-0.000755822113968819,0.00135759685173243,-0.787154327098017,-5.35929185936705e-05,0.00115021482483575
-0.0224580020713106,-0.00025171766025081,-0.0211892795141281,-0.0533075705800937,0.000541318091407392,-0.000116233791782047,-7.90790676786684e-05,-0.00138035115226638,0.0158489580009647,3.05249979406986e-06,-7.16219800228998e-05,-0.000419788622677485,-0.00334718422536712,0.000386854265617232,7.84284166381867e-05,0.000221530817363473,1.70780795949203e-05,0.00357545806684462,-0.00023653927126419
0.0224580020713106,0.00025171766025081,0.0211892795141281,0.0533075705800937,-0.000541318091407392,0.000116233791782047,7.90790676786684e-05,0.00138035115226638,-0.0158489580009647,-3.05249979406986e-06,7.16219800228998e-05,0.000419788622677485,0.00334718422536712,-0.000386854265617232,-7.84284166381867e-05,-0.000221530817363473,-1.70780795949203e-05,-0.00357545806684462,0.00023653927126419
-0.0858918747120578,-0.000391641212983197,-0.0111468627620648,-0.0244977538069942,0.000516019375559453,-0.000493803220479323,0.000218923282762941,-0.000372977066373111,0.00731610331934726,0.000268088528077765,-0.000113562674751925,-5.34843021903338e-06,-0.000923321497139243,-0.000795097460617589,-3.55314639275526e-05,-0.000244439717936365,0.000115096930780187,0.134929843345226,-0.000628419058182705
0.0858918747120578,0.000391641212983197,0.0111468627620648,0.0244977538069942,-0.000516019375559453,0.000493803220479323,-0.000218923282762941,0.000372977066373111,-0.00731610331934726,-0.000268088528077765,0.000113562674751925,5.34843021903338e-06,0.000923321497139243,0.000795097460617589,3.55314639275526e-05,0.000244439717936365,-0.000115096930780187,-0.134929843345226,0.000628419058182705
-0.00105426346406896,2.1429966093674e-05,-0.000428713427861181,-0.00058015368173337,-0.000251525233577757,7.81369011489566e-06,3.01442185681761e-05,-0.000310110940082224,0.000310055603467939,6.69316623196328e-05,-4.88181826327166e-06,0.000125667330198518,-4.10735890372323e-05,8.90365359452808e-05,-0.000174614265525835,-0.000155503641349211,8.16888362778449e-05,6.00284189567208e-05,4.44516829774607e-05
0.00105426346406896,-2.1429966093674e-05,0.000428713427861181,0.00058015368173337,0.000251525233577757,-7.81369011489566e-06,-3.01442185681761e-05,0.000310110940082224,-0.000310055603467939,-6.69316623196328e-05,4.88181826327166e-06,-0.000125667330198518,4.10735890372323e-05,-8.90365359452808e-05,0.000174614265525835,0.000155503641349211,-8.16888362778449e-05,-6.00284189567208e-05,-4.44516829774607e-05
-0.00158862682018985,0.000296162866382827,-0.00199523073153893,-0.000943299734744415,-0.000641501547080828,0.000112216642552077,7.84776263737299e-05,-0.000766175270785231,0.000512592332480708,-0.000448884178596976,-6.9699469383757e-05,0.000332248697735302,0.000691192648849495,0.000267593297222273,-0.000164899317827679,-1.28054957803766e-05,7.07939590532639e-06,2.72038529413401e-05,9.11170919425232e-05
0.00158862682018985,-0.000296162866382827,0.00199523073153893,0.000943299734744415,0.000641501547080828,-0.000112216642552077,-7.84776263737299e-05,0.000766175270785231,-0.000512592332480708,0.000448884178596976,6.9699469383757e-05,-0.000332248697735302,-0.000691192648849495,-0.000267593297222273,0.000164899317827679,1.28054957803766e-05,-7.07939590532639e-06,-2.72038529413401e-05,-9.11170919425232e-05
-0.0045839937637316,-8.11582596198854e-05,-0.00288239048936435,0.000731930156669108,-0.00574017084557879,0.00072961089305017,-4.738206455981e-05,-0.0026952846604806,0.000893547667238287,-0.000444858599066099,5.82878361807465e-05,-0.000704895826011705,0.000243485915398571,-3.84006954313177e-05,-6.1135636135751e-05,-0.000143996838245437,0.000241161304602834,-4.48771517514023e-05,-0.000187088493682606
0.0045839937637316,8.11582596198854e-05,0.00288239048936435,-0.000731930156669108,0.00574017084557879,-0.00072961089305017,4.738206455981e-05,0.0026952846604806,-0.000893547667238287,0.000444858599066099,-5.82878361807465e-05,0.000704895826011705,-0.000243485915398571,3.84006954313177e-05,6.1135636135751e-05,0.000143996838245437,-0.000241161304602834,4.48771517514023e-05,0.000187088493682606
-0.00309373550109109,1.55787242751076e-05,-0.00184641239944618,0.000828439066357557,-0.00324406629124085,0.000572619046938109,-0.000268660459578941,-0.00253060097119582,6.73355064350451e-06,-0.000448983621237779,3.48624525276183e-05,-0.00070171653073138,0.000404660973327008,-0.000282691570611649,-0.000184664556216132,7.00682580695577e-05,-8.54094639472462e-06,-9.08043667532429e-05,-0.000241704853480676
0.00309373550109109,-1.55787242751076e-05,0.00184641239944618,-0.000828439066357557,0.00324406629124085,-0.000572619046938109,0.000268660459578941,0.00253060097119582,-6.73355064350451e-06,0.000448983621237779,-3.48624525276183e-05,0.00070171653073138,-0.000404660973327008,0.000282691570611649,0.000184664556216132,-7.00682580695577e-05,8.54094639472462e-06,9.08043667532429e-05,0.000241704853480676
-0.000395489506909535,-7.13044817881834e-05,3.07267399125915e-05,-2.43084586674139e-05,0.000103396557454534,5.85217894076571e-05,0.000179943848982886,-5.67493591019777e-05,0.000123392336396636,3.22153018456959e-06,-5.94832737191943e-05,-5.88339125493413e-05,0.000136238074543701,1.44647570432749e-05,4.49480031775164e-06,-1.10070057409869e-05,-4.24417574721477e-05,0.000142601970805781,8.79504091077663e-07
0.000395489506909535,7.13044817881834e-05,-3.07267399125915e-05,2.43084586674139e-05,-0.000103396557454534,-5.85217894076571e-05,-0.000179943848982886,5.67493591019777e-05,-0.000123392336396636,-3.22153018456959e-06,5.94832737191943e-05,5.88339125493413e-05,-0.000136238074543701,-1.44647570432749e-05,-4.49480031775164e-06,1.10070057409869e-05,4.24417574721477e-05,-0.000142601970805781,-8.79504091077663e-07
-0.00219801896619314,-3.39212486725998e-05,-0.000560335378013557,-0.00104246380263664,-0.000675017300438553,0.00018670239772398,0.000153395226436349,-0.000810190761072535,0.000902739563857395,1.85984473569295e-05,-5.22976872664009e-06,-0.000536448041077504,8.60519547015207e-06,-0.000301449256812185,3.96056486283585e-05,-0.000266269469868425,3.2635421222422e-05,0.000150976899874415,-6.30403048637275e-05
0.00219801896619314,3.39212486725998e-05,0.000560335378013557,0.00104246380263664,0.000675017300438553,-0.00018670239772398,-0.000153395226436349,0.000810190761072535,-0.000902739563857395,-1.85984473569295e-05,5.22976872664009e-06,0.000536448041077504,-8.60519547015207e-06,0.000301449256812185,-3.96056486283585e-05,0.000266269469868425,-3.2635421222422e-05,-0.000150976899874415,6.30403048637275e-05
9.64622177950689e-06,4.27959695007242e-05,1.71078781213301e-05,0.00013801544413057,-1.63567773431327e-06,-2.52232262411041e-05,-5.39513220999973e-05,-0.000104575592018944,-8.25760989009111e-05,-3.86655599838741e-05,-5.23246121824628e-06,1.40422338004975e-05,-5.72616171565177e-05,-1.65246007026481e-05,-4.03241921990186e-05,-6.02432906942048e-05,7.94192836991004e-07,1.19298166643287e-06,-9.5886620597232e-06
-9.64622177950689e-06,-4.27959695007242e-05,-1.71078781213301e-05,-0.00013801544413057,1.63567773431327e-06,2.52232262411041e-05,5.39513220999973e-05,0.000104575592018944,8.25760989009111e-05,3.86655599838741e-05,5.23246121824628e-06,-1.40422338004975e-05,5.72616171565177e-05,1.65246007026481e-05,4.03241921990186e-05,6.02432906942048e-05,-7.94192836991004e-07,-1.19298166643287e-06,9.5886620597232e-06
-0.195541158591008,-0.000956361073222286,-0.320107419263173,-0.485883681614858,0.00079425758583264,0.000224041088800923,0.000275293698305142,0.274959579056392,0.0279583773768127,-0.0020540585361343,0.000168996320017295,-0.015038423614329,-0.000371520190405302,0.000377642016929316,-0.000167677084702153,0.000998348939428919,-0.000215314043946437,4.38925249250574e-05,0.00011318724545556
0.195541158591008,0.000956361073222286,0.320107419263173,0.485883681614858,-0.00079425758583264,-0.000224041088800923,-0.000275293698305142,-0.274959579056392,-0.0279583773768127,0.0020540585361343,-0.000168996320017295,0.015038423614329,0.000371520190405302,-0.000377642016929316,0.000167677084702153,-0.000998348939428919,0.000215314043946437,-4.38925249250574e-05,-0.00011318724545556
-0.371943897745753,4.06716126497586e-05,0.00557201716626967,0.00221202537071036,-0.00107788875339815,-0.000254609297435869,-3.83713277297163e-05,0.14392544240086,-0.00536215364796897,-0.0459479564698649,1.83993376278844e-05,-0.00251666620905745,0.00898423483780312,3.44282299922957e-05,-0.393248989582021,0.000299075134643691,3.74655656203376e-05,-0.00062382970447018,-0.000107637606897359
0.371943897745753,-4.06716126497586e-05,-0.00557201716626967,-0.00221202537071036,0.00107788875339815,0.000254609297435869,3.83713277297163e-05,-0.14392544240086,0.00536215364796897,0.0459479564698649,-1.83993376278844e-05,0.00251666620905745,-0.00898423483780312,-3.44282299922957e-05,0.393248989582021,-0.000299075134643691,-3.74655656203376e-05,0.00062382970447018,0.000107637606897359
-0.324793471280266,0.000558490913673001,0.0067970031069979,0.0492613828646046,0.025085114454728,0.000756492380790634,-0.000233794368177376,0.206506245551708,-0.00303788403018187,-0.199090699393966,-8.52177994264006e-05,-0.000969066576313299,0.00171145234326852,-0.000510893789685023,-0.501754690214929,-0.00100256912706551,3.82564957556995e-05,-0.000158322576808708,-1.1910495368377e-05
0.324793471280266,-0.000558490913673001,-0.0067970031069979,-0.0492613828646046,-0.025085114454728,-0.000756492380790634,0.000233794368177376,-0.206506245551708,0.00303788403018187,0.199090699393966,8.52177994264006e-05,0.000969066576313299,-0.00171145234326852,0.000510893789685023,0.501754690214929,0.00100256912706551,-3.82564957556995e-05,0.000158322576808708,1.1910495368377e-05
-0.00406231663698552,-0.000166517677159053,-9.78980991143646e-05,2.34175730719705e-05,-0.00240309649023966,0.000147901937417649,9.79894563034687e-05,0.00035030033515211,5.41887504626564e-05,-0.000158153577082653,1.95176640116146e-05,-0.000376508278358551,0.000182790874279233,-0.000139476007020908,4.9385753396959e-05,-0.000103729960410771,-5.87774010281923e-05,2.37341214971444e-06,-1.4429165910943e-05
0.00406231663698552,0.000166517677159053,9.78980991143646e-05,-2.34175730719705e-05,0.00240309649023966,-0.000147901937417649,-9.79894563034687e-05,-0.00035030033515211,-5.41887504626564e-05,0.000158153577082653,-1.95176640116146e-05,0.000376508278358551,-0.000182790874279233,0.000139476007020908,-4.9385753396959e-05,0.000103729960410771,5.87774010281923e-05,-2.37341214971444e-06,1.4429165910943e-05
-0.00850903513652481,-0.000185990496888197,-6.05686526413827e-05,-0.000736200673018626,-0.00512262769154787,0.000254129976253253,-2.40073598693173e-05,0.00170980937013899,-0.000934830573240441,-0.000218549812090224,5.92136320671447e-05,-0.00044311133116388,0.000258551557181419,-0.000117709826905353,4.53459080517726e-05,-0.000102655444040033,-6.47776389574716e-05,7.17288241347598e-05,1.9074191617915e-06
0.00850903513652481,0.000185990496888197,6.05686526413827e-05,0.000736200673018626,0.00512262769154787,-0.000254129976253253,2.40073598693173e-05,-0.00170980937013899,0.000934830573240441,0.000218549812090224,-5.92136320671447e-05,0.00044311133116388,-0.000258551557181419,0.000117709826905353,-4.53459080517726e-05,0.000102655444040033,6.47776389574716e-05,-7.17288241347598e-05,-1.9074191617915e-06
-0.00082443868510464,-0.000132090996726638,-0.000588116450027492,-0.00118153868644355,-0.000225212482269725,-9.86607115463766e-06,0.000120774906320173,0.00121080770768925,-9.30755445116004e-06,-0.000133102624105931,2.63362450932237e-05,-0.000142730628074033,2.13477725005918e-05,0.000186694360242187,2.57654684777526e-05,9.72290225597052e-05,-9.52540064473138e-05,3.40093798618249e-05,-0.000128660335565432
0.00082443868510464,0.000132090996726638,0.000588116450027492,0.00118153868644355,0.000225212482269725,9.86607115463766e-06,-0.000120774906320173,-0.00121080770768925,9.30755445116004e-06,0.000133102624105931,-2.63362450932237e-05,0.000142730628074033,-2.13477725005918e-05,-0.000186694360242187,-2.57654684777526e-05,-9.72290225597052e-05,9.52540064473138e-05,-3.40093798618249e-05,0.000128660335565432
-0.0211774873477658,-2.33747750455216e-05,-0.00239576559404463,-0.0102301377102016,-0.00111272751067344,0.000324589030517554,0.000322164440222914,0.00783025416292774,-0.0018384750478591,0.000205651705568527,-0.000510651783014556,-0.000201048691793547,-0.000547774863123087,0.000308993462536191,0.000178679192074254,-6.67729406849655e-06,-3.86922658633439e-05,0.000704423969327011,5.4187654724223e-05
0.0211774873477658,2.33747750455216e-05,0.00239576559404463,0.0102301377102016,0.00111272751067344,-0.000324589030517554,-0.000322164440222914,-0.00783025416292774,0.0018384750478591,-0.000205651705568527,0.000510651783014556,0.000201048691793547,0.000547774863123087,-0.000308993462536191,-0.000178679192074254,6.67729406849655e-06,3.86922658633439e-05,-0.000704423969327011,-5.4187654724223e-05
-0.0350819132425749,-1.32643385310761e-05,-0.00097319598262352,-0.0120863449190274,-0.00193908437703618,0.000284553310625967,0.000463519838546752,0.025636719836581,-0.00181445304492284,0.000605873833381798,-0.00109782469043379,2.38077924855113e-05,0.000864407435150037,0.000130657927641413,0.000271715491463534,0.000135353439230424,0.000130985700223954,0.000930759882994998,0.000446822711779879
0.0350819132425749,1.32643385310761e-05,0.00097319598262352,0.0120863449190274,0.00193908437703618,-0.000284553310625967,-0.000463519838546752,-0.025636719836581,0.00181445304492284,-0.000605873833381798,0.00109782469043379,-2.38077924855113e-05,-0.000864407435150037,-0.000130657927641413,-0.000271715491463534,-0.000135353439230424,-0.000130985700223954,-0.000930759882994998,-0.000446822711779879
-7.14551958146375e-06,1.49117261902954e-05,-0.000409279458148463,-0.000148067728406385,0.000112757757659441,2.90482691401689e-05,5.11932489923845e-05,-0.000136665069373788,-0.000309998959884085,7.17778286511446e-05,-5.68744041233854e-06,7.07843955217223e-05,7.49954572777832e-05,-4.56656433224788e-05,2.49135072427413e-05,2.99280048234429e-05,-5.99272683058314e-06,1.34898384910153e-05,2.06531679161466e-06
7.14551958146375e-06,-1.49117261902954e-05,0.000409279458148463,0.000148067728406385,-0.000112757757659441,-2.90482691401689e-05,-5.11932489923845e-05,0.000136665069373788,0.000309998959884085,-7.17778286511446e-05,5.68744041233854e-06,-7.07843955217223e-05,-7.49954572777832e-05,4.56656433224788e-05,-2.49135072427413e-05,-2.99280048234429e-05,5.99272683058314e-06,-1.34898384910153e-05,-2.06531679161466e-06
-0.287254027671194,5.43516928774572e-05,-0.353843535820069,-0.504759735789057,-0.237605771448853,-0.000705079702835351,-0.00065169612545287,0.0323464527335517,0.00961602413191841,0.000467010093667285,-8.48875581419386e-05,-0.000227256932275775,0.000936461875145161,0.000361689268518969,0.00143288445861459,5.61669202809888e-05,0.000168343901168333,-0.000199153140317629,0.000479792895888663
0.287254027671194,-5.43516928774572e-05,0.353843535820069,0.504759735789057,0.237605771448853,0.000705079702835351,0.00065169612545287,-0.0323464527335517,-0.00961602413191841,-0.000467010093667285,8.48875581419386e-05,0.000227256932275775,-0.000936461875145161,-0.000361689268518969,-0.00143288445861459,-5.61669202809888e-05,-0.000168343901168333,0.000199153140317629,-0.000479792895888663
-0.311361692681299,-0.00019464235258473,-0.28026441711713,-0.551816318271876,-0.25809132338369,-0.000298634205299109,-0.000937723220581366,0.117340333831253,0.00975101474568953,0.00133666546466886,-0.000178352985297662,0.000196934511037749,0.00185981108531076,-5.65581726693104e-05,0.000110169251654786,-0.00276093925333741,-0.000110455162483403,-0.000690611530021546,-0.000232941846822986
0.311361692681299,0.00019464235258473,0.28026441711713,0.551816318271876,0.25809132338369,0.000298634205299109,0.000937723220581366,-0.117340333831253,-0.00975101474568953,-0.00133666546466886,0.000178352985297662,-0.000196934511037749,-0.00185981108531076,5.65581726693104e-05,-0.000110169251654786,0.00276093925333741,0.000110455162483403,0.000690611530021546,0.000232941846822986
-0.00608264653903013,0.000426151937261376,-0.000531518525736655,-0.0106082362405849,-0.000673385808100157,-0.000123750536923444,-7.55122164733048e-05,0.0119768431367934,-0.00226002870845026,-0.000136092513594945,-3.63545897254895e-05,-0.000262434089830409,-8.7049509705946e-05,-2.91925304564237e-05,1.83956396376033e-05,8.06722739864014e-06,7.81095783851102e-05,0.000162125482838882,-3.82971538560428e-05
0.00608264653903013,-0.000426151937261376,0.000531518525736655,0.0106082362405849,0.000673385808100157,0.000123750536923444,7.55122164733048e-05,-0.0119768431367934,0.00226002870845026,0.000136092513594945,3.63545897254895e-05,0.000262434089830409,8.7049509705946e-05,2.91925304564237e-05,-1.83956396376033e-05,-8.06722739864014e-06,-7.81095783851102e-05,-0.000162125482838882,3.82971538560428e-05
-0.029201994733533,0.0006674594055426,-0.00855151343702777,-0.00366546902228934,0.000706612046388976,-0.000294049468082902,-0.000346331681818199,0.0196667417525923,-0.00557498842609287,0.00131087786061742,-0.000521631540337797,0.00457050872482124,0.000274867798780585,-0.000595111558223593,-0.00151174992099747,0.000168484760507958,0.000312105390942646,-4.0258895114847e-05,-1.2992840581159e-05
0.029201994733533,-0.0006674594055426,0.00855151343702777,0.00366546902228934,-0.000706612046388976,0.000294049468082902,0.000346331681818199,-0.0196667417525923,0.00557498842609287,-0.00131087786061742,0.000521631540337797,-0.00457050872482124,-0.000274867798780585,0.000595111558223593,0.00151174992099747,-0.000168484760507958,-0.000312105390942646,4.0258895114847e-05,1.2992840581159e-05
-0.0854603871816796,0.000661717369051569,-0.000466597226678915,-0.000107659514280878,-0.000808831989785012,-0.00039059210516423,-0.000481359359029029,0.0141137332044522,-0.0147006096677044,0.00147380505845871,-0.000735096999653878,0.00296388896838705,0.00031079648063914,2.76756841747168e-05,-0.000968280636188761,1.65657541765374e-07,0.00129644345784333,-6.13100658677836e-05,6.15241170792206e-05
0.0854603871816796,-0.000661717369051569,0.000466597226678915,0.000107659514280878,0.000808831989785012,0.00039059210516423,0.000481359359029029,-0.0141137332044522,0.0147006096677044,-0.00147380505845871,0.000735096999653878,-0.00296388896838705,-0.00031079648063914,-2.76756841747168e-05,0.000968280636188761,-1.65657541765374e-07,-0.00129644345784333,6.13100658677836e-05,-6.15241170792206e-05
-0.1506650166464,0.000319118250464066,0.00305399904336113,0.0035700520145265,0.000155883206963668,0.000241540595045505,9.52179313990558e-05,0.0142343512005229,-0.00354034671022867,-0.00576197518698188,-3.48243919255741e-05,-0.000514182535005845,0.000369305501967475,0.000406564075360053,0.00010631799629898,0.000427316716332088,0.0004052227467908,9.87719722728802e-05,-0.000111480534153133
0.1506650166464,-0.000319118250464066,-0.00305399904336113,-0.0035700520145265,-0.000155883206963668,-0.000241540595045505,-9.52179313990558e-05,-0.0142343512005229,0.00354034671022867,0.00576197518698188,3.48243919255741e-05,0.000514182535005845,-0.000369305501967475,-0.000406564075360053,-0.00010631799629898,-0.000427316716332088,-0.0004052227467908,-9.87719722728802e-05,0.000111480534153133
-0.00333051300179917,-0.000154797611685685,-0.000362802387768635,-0.000452767762421316,-0.00268298610086827,6.78741192276617e-05,-6.45280031392837e-05,-0.000662979559483561,0.00106696840270187,-0.000453473679308223,4.66909726474515e-06,-0.000923973901006709,7.14364813173181e-05,-0.000203123367069101,3.86043708763391e-05,-1.08602454096493e-05,4.58051731514747e-06,2.37841848749796e-05,6.74041026108169e-05
0.00333051300179917,0.000154797611685685,0.000362802387768635,0.000452767762421316,0.00268298610086827,-6.78741192276617e-05,6.45280031392837e-05,0.000662979559483561,-0.00106696840270187,0.000453473679308223,-4.66909726474515e-06,0.000923973901006709,-7.14364813173181e-05,0.000203123367069101,-3.86043708763391e-05,1.08602454096493e-05,-4.58051731514747e-06,-2.37841848749796e-05,-6.74041026108169e-05
-0.157819179295691,0.000109932486680493,0.00782214355507555,0.000968316811625766,-0.00125443665267737,3.25397623351986e-05,0.00012298382113412,0.0866808137703467,-0.00581009817252158,-0.00635510687716636,5.65989888634779e-06,-0.00107039979730354,0.00123598085587902,0.000375667187403725,6.21165592423196e-05,0.000203135365699379,0.000254408116254272,-8.50739915186626e-05,-4.65354967866785e-05
0.157819179295691,-0.000109932486680493,-0.00782214355507555,-0.000968316811625766,0.00125443665267737,-3.25397623351986e-05,-0.00012298382113412,-0.0866808137703467,0.00581009817252158,0.00635510687716636,-5.65989888634779e-06,0.00107039979730354,-0.00123598085587902,-0.000375667187403725,-6.21165592423196e-05,-0.000203135365699379,-0.000254408116254272,8.50739915186626e-05,4.65354967866785e-05
-0.0029386701031566,-0.000120181473909724,-0.000382495618492023,-0.000325379973085913,-0.00235549731354487,4.29787822808965e-05,9.72041639648397e-06,-0.000536068127275473,0.00088445878224344,-0.000287648363587694,1.19243233385506e-05,-0.00105861127102034,0.000133629747173343,-0.000154165772969676,7.82824901924575e-05,7.42845246002873e-06,-5.57581534489248e-05,2.34109974906384e-05,3.81005695410429e-05
0.0029386701031566,0.000120181473909724,0.000382495618492023,0.000325379973085913,0.00235549731354487,-4.29787822808965e-05,-9.72041639648397e-06,0.000536068127275473,-0.00088445878224344,0.000287648363587694,-1.19243233385506e-05,0.00105861127102034,-0.000133629747173343,0.000154165772969676,-7.82824901924575e-05,-7.42845246002873e-06,5.57581534489248e-05,-2.34109974906384e-05,-3.81005695410429e-05
-0.139627767691256,-0.000154261213067584,0.00507052356364429,0.00132784915298049,-0.00172477497431929,-6.6465031971418e-05,4.62751817667835e-05,0.01099825998553,-0.00310994202858161,-0.00185067917666611,7.28414818302697e-05,-0.000815489756227215,-0.000194500324187902,0.000676645271299611,1.17032087663294e-05,0.000406894030333087,0.000196304081263318,4.16228232753615e-05,3.79011983051985e-06
0.139627767691256,0.000154261213067584,-0.00507052356364429,-0.00132784915298049,0.00172477497431929,6.6465031971418e-05,-4.62751817667835e-05,-0.01099825998553,0.00310994202858161,0.00185067917666611,-7.28414818302697e-05,0.000815489756227215,0.000194500324187902,-0.000676645271299611,-1.17032087663294e-05,-0.000406894030333087,-0.000196304081263318,-4.16228232753615e-05,-3.79011983051985e-06
-0.00333163441150092,-8.77502409639763e-05,-0.000716296214566274,0.000200520947906439,-0.00394776752280733,-1.52833487460795e-05,-7.5741036990283e-05,-0.0015736364555496,0.000952104705283398,-0.000307353365014606,3.29563510006935e-05,-0.000877543138184487,-8.4131695338583e-05,-0.000298644332042955,5.82903933713285e-06,-0.000119767301848472,6.53343996039506e-05,-2.4523721010415e-05,3.02665342698542e-05
0.00333163441150092,8.77502409639763e-05,0.000716296214566274,-0.000200520947906439,0.00394776752280733,1.52833487460795e-05,7.5741036990283e-05,0.0015736364555496,-0.000952104705283398,0.000307353365014606,-3.29563510006935e-05,0.000877543138184487,8.4131695338583e-05,0.000298644332042955,-5.82903933713285e-06,0.000119767301848472,-6.53343996039506e-05,2.4523721010415e-05,-3.02665342698542e-05
-0.201431563457595,0.000128330989023949,0.00650791759245657,0.000352059715216928,-0.00445228019653748,0.00036606069456657,0.000145259640089269,0.0394616284237757,-0.00250981833902927,-0.0044012286918363,3.5257926597267e-05,-0.0010664163461972,0.00177112885217888,-0.000172835381158329,0.000203626639053135,0.000253272966935953,0.000291053331043237,7.80692743188136e-05,0.000153968545534827
0.201431563457595,-0.000128330989023949,-0.00650791759245657,-0.000352059715216928,0.00445228019653748,-0.00036606069456657,-0.000145259640089269,-0.0394616284237757,0.00250981833902927,0.0044012286918363,-3.5257926597267e-05,0.0010664163461972,-0.00177112885217888,0.000172835381158329,-0.000203626639053135,-0.000253272966935953,-0.000291053331043237,-7.80692743188136e-05,-0.000153968545534827
-0.00328520407141956,-0.000187373149583646,-0.000409344678972292,1.61985044020131e-05,-0.00245536432804873,1.164697620715e-05,-0.000117342565323348,-0.00109660609824747,0.000993996515444623,-0.000191186049947036,1.90901812168056e-05,-0.000945902195075649,-4.3721004524137e-05,-0.000149505609454133,4.65323636040844e-05,-4.54789451286879e-05,1.63231130464446e-05,-1.14891061145302e-05,-6.67492842110836e-05
0.00328520407141956,0.000187373149583646,0.000409344678972292,-1.61985044020131e-05,0.00245536432804873,-1.164697620715e-05,0.000117342565323348,0.00109660609824747,-0.000993996515444623,0.000191186049947036,-1.90901812168056e-05,0.000945902195075649,4.3721004524137e-05,0.000149505609454133,-4.65323636040844e-05,4.54789451286879e-05,-1.63231130464446e-05,1.14891061145302e-05,6.67492842110836e-05
-0.0579666773994207,-9.09297364932587e-05,0.00278212050579466,0.000269083534804038,-0.000254800339556587,-0.000131213756788362,1.8150164220019e-05,0.0135209299057584,-0.00210062060904626,-0.000699245181249403,2.22175053875241e-05,-0.000344262664306186,-0.000194409879598139,-0.000180586279748607,-9.13939855686981e-06,-0.00015490308019018,0.000282174884135656,-3.18762435315673e-05,-9.78736848171667e-05
0.0579666773994207,9.09297364932587e-05,-0.00278212050579466,-0.000269083534804038,0.000254800339556587,0.000131213756788362,-1.8150164220019e-05,-0.0135209299057584,0.00210062060904626,0.000699245181249403,-2.22175053875241e-05,0.000344262664306186,0.000194409879598139,0.000180586279748607,9.13939855686981e-06,0.00015490308019018,-0.000282174884135656,3.18762435315673e-05,9.78736848171667e-05
-0.00303942489095965,-0.000103191768157679,-0.000618116364022501,0.000110693451158189,-0.00254615645783679,-2.87821622018835e-06,-0.00015254749512042,-0.00121495871367007,0.000891893312451412,-0.000310034912665884,1.20661904050227e-05,-0.000837443356305438,-9.07041507711138e-05,-0.000243862223602382,-1.74126996677662e-05,-0.000115477556408626,7.1924972352507e-05,-9.73949573105152e-06,-1.01651282732185e-05
0.00303942489095965,0.000103191768157679,0.000618116364022501,-0.000110693451158189,0.00254615645783679,2.87821622018835e-06,0.00015254749512042,0.00121495871367007,-0.000891893312451412,0.000310034912665884,-1.20661904050227e-05,0.000837443356305438,9.07041507711138e-05,0.000243862223602382,1.74126996677662e-05,0.000115477556408626,-7.1924972352507e-05,9.73949573105152e-06,1.01651282732185e-05
-0.143560170599635,-0.000311418802581197,0.00692187976883108,0.000209679449850586,-0.00356529921497777,-7.72271531821075e-06,-4.38766231048243e-05,0.0165299131769473,-0.00691288239547865,-0.00199087631677301,4.44581635526464e-05,-0.00134166282217601,0.000707969581970466,-0.000576790051095747,0.000228390201774707,-8.2132155754751e-05,0.000241592670230745,-3.92409773609006e-05,2.48904049132614e-05
0.143560170599635,0.000311418802581197,-0.00692187976883108,-0.000209679449850586,0.00356529921497777,7.72271531821075e-06,4.38766231048243e-05,-0.0165299131769473,0.00691288239547865,0.00199087631677301,-4.44581635526464e-05,0.00134166282217601,-0.000707969581970466,0.000576790051095747,-0.000228390201774707,8.2132155754751e-05,-0.000241592670230745,3.92409773609006e-05,-2.48904049132614e-05
-0.00328520407141956,-0.000187373149583646,-0.000409344678972292,1.61985044020131e-05,-0.00245536432804873,1.164697620715e-05,-0.000117342565323348,-0.00109660609824747,0.000993996515444623,-0.000191186049947036,1.90901812168056e-05,-0.000945902195075649,-4.3721004524137e-05,-0.000149505609454133,4.65323636040844e-05,-4.54789451286879e-05,1.63231130464446e-05,-1.14891061145302e-05,-6.67492842110836e-05
0.00328520407141956,0.000187373149583646,0.000409344678972292,-1.61985044020131e-05,0.00245536432804873,-1.164697620715e-05,0.000117342565323348,0.00109660609824747,-0.000993996515444623,0.000191186049947036,-1.90901812168056e-05,0.000945902195075649,4.3721004524137e-05,0.000149505609454133,-4.65323636040844e-05,4.54789451286879e-05,-1.63231130464446e-05,1.14891061145302e-05,6.67492842110836e-05
-0.0817514908750805,-0.000178491519367524,0.00356821195590467,-0.000492271705070977,0.000124193211172904,1.04535557522411e-05,4.68258170373521e-05,0.0279410731311805,-0.00223324110339153,-0.000914579839957032,-7.40259171263028e-05,-0.000435152855991293,-0.000388555629949731,-0.000196596459540002,-2.8982470870554e-05,-0.00024135353041675,0.00022086386519209,9.56147492227921e-05,-0.000226535449168951
0.0817514908750805,0.000178491519367524,-0.00356821195590467,0.000492271705070977,-0.000124193211172904,-1.04535557522411e-05,-4.68258170373521e-05,-0.0279410731311805,0.00223324110339153,0.000914579839957032,7.40259171263028e-05,0.000435152855991293,0.000388555629949731,0.000196596459540002,2.8982470870554e-05,0.00024135353041675,-0.00022086386519209,-9.56147492227921e-05,0.000226535449168951
-0.00217068511019879,-0.000153752808927589,-0.000346453459440773,8.5589926347241e-05,-0.00137596330885309,8.35398458216892e-05,-6.90288725087249e-05,-0.000570432727933661,0.000724905521932635,-0.00012163155591782,2.22226539018046e-05,-0.000708248411863417,5.08710368635002e-06,-0.00024572367080167,2.52221784765787e-05,-8.773937217672e-05,6.79344222763515e-05,-9.7834817616565e-06,-2.95656285211718e-07
0.00217068511019879,0.000153752808927589,0.000346453459440773,-8.5589926347241e-05,0.00137596330885309,-8.35398458216892e-05,6.90288725087249e-05,0.000570432727933661,-0.000724905521932635,0.00012163155591782,-2.22226539018046e-05,0.000708248411863417,-5.08710368635002e-06,0.00024572367080167,-2.52221784765787e-05,8.773937217672e-05,-6.79344222763515e-05,9.7834817616565e-06,2.95656285211718e-07
-0.122425351941209,-0.000393335715175664,0.00393465040291555,0.000270320328756507,-0.00219673280239091,-0.000204719043753338,-9.97923423727031e-05,0.0745375388391388,-0.0042712617813903,-0.00177720689977044,-1.58172245100379e-05,-0.0004721204557792,-0.000854098950228986,-0.000392533647815138,0.000166683650989154,-0.000377353976678132,0.000243882871862266,5.81223148074575e-05,-7.53546370813653e-05
0.122425351941209,0.000393335715175664,-0.00393465040291555,-0.000270320328756507,0.00219673280239091,0.000204719043753338,9.97923423727031e-05,-0.0745375388391388,0.0042712617813903,0.00177720689977044,1.58172245100379e-05,0.0004721204557792,0.000854098950228986,0.000392533647815138,-0.000166683650989154,0.000377353976678132,-0.000243882871862266,-5.81223148074575e-05,7.53546370813653e-05
-0.00217068511019879,-0.000153752808927589,-0.000346453459440773,8.5589926347241e-05,-0.00137596330885309,8.35398458216892e-05,-6.90288725087249e-05,-0.000570432727933661,0.000724905521932635,-0.00012163155591782,2.22226539018046e-05,-0.000708248411863417,5.08710368635002e-06,-0.00024572367080167,2.52221784765787e-05,-8.773937217672e-05,6.79344222763515e-05,-9.7834817616565e-06,-2.95656285211718e-07
0.00217068511019879,0.000153752808927589,0.000346453459440773,-8.5589926347241e-05,0.00137596330885309,-8.35398458216892e-05,6.90288725087249e-05,0.000570432727933661,-0.000724905521932635,0.00012163155591782,-2.22226539018046e-05,0.000708248411863417,-5.08710368635002e-06,0.00024572367080167,-2.52221784765787e-05,8.773937217672e-05,-6.79344222763515e-05,9.7834817616565e-06,2.95656285211718e-07
-0.28222149908828,-0.000387964757538616,-0.290610602944818,-0.538307845520511,0.00117729592066823,0.000142279747631279,-0.000193170777003644,0.319285332421889,0.0122539409567215,-0.000300491237479279,7.91137266739008e-05,-0.0108233635452764,-0.000323858053979523,-0.00060418576726806,-5.46803712387406e-05,9.83010480056948e-05,-0.00116191272331522,0.000224182222945335,-7.07038313433604e-05
0.28222149908828,0.000387964757538616,0.290610602944818,0.538307845520511,-0.00117729592066823,-0.000142279747631279,0.000193170777003644,-0.319285332421889,-0.0122539409567215,0.000300491237479279,-7.91137266739008e-05,0.0108233635452764,0.000323858053979523,0.00060418576726806,5.46803712387406e-05,-9.83010480056948e-05,0.00116191272331522,-0.000224182222945335,7.07038313433604e-05
-0.0113884806892391,3.87617219530751e-05,-0.0761108544309325,-0.200019995710847,-0.000696871452089934,-0.00016416570659005,0.000106772122043937,0.00434534880483481,9.54006687435069e-05,0.000670702361221726,5.97025216486729e-05,-3.71207890525409e-05,1.14700732752526e-06,0.00230834586519631,-0.000278226579048388,-7.1090588313478e-05,-7.72556563037547e-05,0.000174204367802619,-8.74391439269391e-05
0.0113884806892391,-3.87617219530751e-05,0.0761108544309325,0.200019995710847,0.000696871452089934,0.00016416570659005,-0.000106772122043937,-0.00434534880483481,-9.54006687435069e-05,-0.000670702361221726,-5.97025216486729e-05,3.71207890525409e-05,-1.14700732752526e-06,-0.00230834586519631,0.000278226579048388,7.1090588313478e-05,7.72556563037547e-05,-0.000174204367802619,8.74391439269391e-05
-0.0104356887615876,0.000589975959226897,-0.032998894046751,-0.23703871580804,-0.000635364031737207,-0.000465828614686605,-0.000102971222444305,0.00426741349253247,-0.000781510575124697,0.00098145951055499,1.86987162978429e-05,0.000611512102933187,-9.94121568960852e-05,0.000648034202562964,-0.000451131346844215,-0.000161798345734814,0.00040829564872157,0.000324887358096545,-0.000130546586250448
0.0104356887615876,-0.000589975959226897,0.032998894046751,0.23703871580804,0.000635364031737207,0.000465828614686605,0.000102971222444305,-0.00426741349253247,0.000781510575124697,-0.00098145951055499,-1.86987162978429e-05,-0.000611512102933187,9.94121568960852e-05,-0.000648034202562964,0.000451131346844215,0.000161798345734814,-0.00040829564872157,-0.000324887358096545,0.000130546586250448
-0.387987923479631,0.000372962556126511,-0.636053643383691,-0.962630563853628,-0.000218691797945858,0.000490050656361801,0.000454101836647921,0.00907823019159777,0.000668211553218444,6.96382754990461e-05,1.46723052479957e-05,0.00262269332957084,-0.000941422030322611,-0.00116435181277791,2.04811048413436e-06,7.21767830820899e-05,9.83163684214035e-05,-0.845769430691081,0.000192608399345302
0.387987923479631,-0.000372962556126511,0.636053643383691,0.962630563853628,0.000218691797945858,-0.000490050656361801,-0.000454101836647921,-0.00907823019159777,-0.000668211553218444,-6.96382754990461e-05,-1.46723052479957e-05,-0.00262269332957084,0.000941422030322611,0.00116435181277791,-2.04811048413436e-06,-7.21767830820899e-05,-9.83163684214035e-05,0.845769430691081,-0.000192608399345302
-0.348535684592699,0.000658580412507079,-0.759350716877344,-1.0110245983736,-0.000954519322803171,-0.000124835685997178,0.000537134619491957,0.32153237456645,-0.000309929362690637,0.00189257558953749,-0.000181609484844376,0.00193548035457407,0.00290264995719219,-0.000665238590943252,0.000148377431740813,-0.000223035217360074,-0.000239607705611495,-0.907984918609801,-0.00078436289007901
0.348535684592699,-0.000658580412507079,0.759350716877344,1.0110245983736,0.000954519322803171,0.000124835685997178,-0.000537134619491957,-0.32153237456645,0.000309929362690637,-0.00189257558953749,0.000181609484844376,-0.00193548035457407,-0.00290264995719219,0.000665238590943252,-0.000148377431740813,0.000223035217360074,0.000239607705611495,0.907984918609801,0.00078436289007901
-0.843693483042965,0.000176559314148286,0.0024165977020602,-0.00500674913763535,0.322483008488977,-0.000206414688358702,-0.000395502147521357,0.459942174284176,-0.00570182420741252,-0.00191082383672161,0.00012528329684363,0.00060850337522732,0.000901395322940079,0.00110312414807329,-1.21957131110911,0.170676190424167,0.000226981333914548,-2.88847311485074e-05,1.91463490390616e-05
0.843693483042965,-0.000176559314148286,-0.0024165977020602,0.00500674913763535,-0.322483008488977,0.000206414688358702,0.000395502147521357,-0.459942174284176,0.00570182420741252,0.00191082383672161,-0.00012528329684363,-0.00060850337522732,-0.000901395322940079,-0.00110312414807329,1.21957131110911,-0.170676190424167,-0.000226981333914548,2.88847311485074e-05,-1.91463490390616e-05
-1.05319858656245,0.000396562586399044,0.0121680204095459,0.00517292718485665,0.617691153912299,-0.000328264549890364,-6.56544725811985e-06,0.606992454133626,-0.306157879641098,0.00260951882545087,0.000125182590254812,-0.000603803013848149,0.000330163120378999,-0.0011052753950333,-1.57469022656452,-0.000827653452925723,9.23889885755063e-05,5.08052556215363e-05,0.000334267362740673
1.05319858656245,-0.000396562586399044,-0.0121680204095459,-0.00517292718485665,-0.617691153912299,0.000328264549890364,6.56544725811985e-06,-0.606992454133626,0.306157879641098,-0.00260951882545087,-0.000125182590254812,0.000603803013848149,-0.000330163120378999,0.0011052753950333,1.57469022656452,0.000827653452925723,-9.23889885755063e-05,-5.08052556215363e-05,-0.000334267362740673
-1.98016927250243,-0.000354989178500665,0.343304538405171,-0.0045227209912763,1.1130920466116,-0.000578908073785678,-0.000165034927082852,0.00351193178724301,-0.793895246134741,1.65240028195841,0.834495976527662,-0.00209765492351969,-0.000355191841473089,1.24641013197656,0.00368786552834782,-9.10602959662605e-05,-0.000803321906926932,-0.00030438528395601,7.02804755762174e-05
1.98016927250243,0.000354989178500665,-0.343304538405171,0.0045227209912763,-1.1130920466116,0.000578908073785678,0.000165034927082852,-0.00351193178724301,0.793895246134741,-1.65240028195841,-0.834495976527662,0.00209765492351969,0.000355191841473089,-1.24641013197656,-0.00368786552834782,9.10602959662605e-05,0.000803321906926932,0.00030438528395601,-7.02804755762174e-05
-2.12384697396966,-0.000227517057610075,0.00806579654617837,0.00596899559905434,1.21709762234879,0.000710711105087409,0.000275356840392544,0.000824130577367382,-1.06033079339374,2.38047036258968,0.000871548014172391,-0.0015731609438082,1.09080802367195,-0.00310521585171974,-3.90786580694493e-06,-0.655657693724942,-0.000806922336426822,0.000179565010906533,-0.000471324014910695
2.12384697396966,0.000227517057610075,-0.00806579654617837,-0.00596899559905434,-1.21709762234879,-0.000710711105087409,-0.000275356840392544,-0.000824130577367382,1.06033079339374,-2.38047036258968,-0.000871548014172391,0.0015731609438082,-1.09080802367195,0.00310521585171974,3.90786580694493e-06,0.655657693724942,0.000806922336426822,-0.000179565010906533,0.000471324014910695
-2.11375150865969,0.000304922224544934,0.0139301291713014,7.19825439039875e-05,1.17871748620532,0.000122648917044204,3.39697288847142e-06,0.0083543088091323,-0.813632640206168,1.57283884236885,0.53537713470015,-0.00161666626182784,-0.938922485477497,0.436130873088409,0.384920544112479,0.703008446145212,-0.00057053088968728,0.000189809905589928,0.000759790880329176
2.11375150865969,-0.000304922224544934,-0.0139301291713014,-7.19825439039875e-05,-1.17871748620532,-0.000122648917044204,-3.39697288847142e-06,-0.0083543088091323,0.813632640206168,-1.57283884236885,-0.53537713470015,0.00161666626182784,0.938922485477497,-0.436130873088409,-0.384920544112479,-0.703008446145212,0.00057053088968728,-0.000189809905589928,-0.000759790880329176
-1.95266855834777,0.000104992692185493,0.00436690014398662,3.05441930069788e-05,1.24030113109437,-0.000279902147756553,8.49664705477725e-05,0.00316795681136434,-1.00220893078922,2.20590447230266,0.000218599633685884,-0.00347028706098846,0.00142749216851553,-0.9488419453653,0.000769451293327022,0.000471108227607183,-0.000761163702362746,-9.73930034713373e-05,0.00148363982010191
1.95266855834777,-0.000104992692185493,-0.00436690014398662,-3.05441930069788e-05,-1.24030113109437,0.000279902147756553,-8.49664705477725e-05,-0.00316795681136434,1.00220893078922,-2.20590447230266,-0.000218599633685884,0.00347028706098846,-0.00142749216851553,0.9488419453653,-0.000769451293327022,-0.000471108227607183,0.000761163702362746,9.73930034713373e-05,-0.00148363982010191
-0.968175515954057,-0.000259810084382583,0.00390997610854804,-0.00255513397235964,0.428677990516053,-0.000166743277990666,0.00050202323262564,0.409298084496659,-0.345846741741545,0.380738860579494,0.000183450371339018,-0.00204068151212097,-0.944353047732949,-0.000728946029752485,0.00166589350773846,0.00714540514497356,-0.000655807261755332,0.000232953202795517,0.000778123464024511
0.968175515954057,0.000259810084382583,-0.00390997610854804,0.00255513397235964,-0.428677990516053,0.000166743277990666,-0.00050202323262564,-0.409298084496659,0.345846741741545,-0.380738860579494,-0.000183450371339018,0.00204068151212097,0.944353047732949,0.000728946029752485,-0.00166589350773846,-0.00714540514497356,0.000655807261755332,-0.000232953202795517,-0.000778123464024511
